{"learner":{"attributes":{"best_iteration":"79","best_ntree_limit":"80","best_score":"7.67089071201375"},"feature_names":[],"feature_types":[],"gradient_booster":{"model":{"gbtree_model_param":{"num_parallel_tree":"1","num_trees":"90","size_leaf_vector":"0"},"tree_info":[0,0,0,0,0,0,0,0,0,0,0,0,0,0,0,0,0,0,0,0,0,0,0,0,0,0,0,0,0,0,0,0,0,0,0,0,0,0,0,0,0,0,0,0,0,0,0,0,0,0,0,0,0,0,0,0,0,0,0,0,0,0,0,0,0,0,0,0,0,0,0,0,0,0,0,0,0,0,0,0,0,0,0,0,0,0,0,0,0,0],"trees":[{"base_weights":[1.7670374E1,2.5274075E1,1.4917654E1,2.8989445E1,1.6059E1,1.7775455E1,1.3621166E1,1.0256666E1,1.938353E1],"categories":[],"categories_nodes":[],"categories_segments":[],"categories_sizes":[],"default_left":[1,1,1,0,0,1,0,0,0],"id":0,"left_children":[1,3,5,-1,-1,7,-1,-1,-1],"loss_changes":[1.8625703E3,4.588672E2,5.7990234E1,0E0,0E0,6.718701E1,0E0,0E0,0E0],"parents":[2147483647,0,0,1,1,2,2,5,5],"right_children":[2,4,6,-1,-1,8,-1,-1,-1],"split_conditions":[3.3484212E-1,4.1084564E-1,5.1267725E-1,2.8989446E0,1.6059E0,2.813038E-1,1.3621167E0,1.0256666E0,1.938353E0],"split_indices":[6,5,4,0,0,2,0,0,0],"split_type":[0,0,0,0,0,0,0,0,0],"sum_hessian":[1.06E2,2.6E1,8E1,1.7E1,9E0,2.1E1,5.9E1,5E0,1.6E1],"tree_param":{"num_deleted":"0","num_feature":"12","num_nodes":"9","size_leaf_vector":"0"}},{"base_weights":[1.5613112E1,2.6125818E1,1.3824201E1,3.024301E1,1.2666274E1,1.9338991E1,1.290461E1,3.4936703E1,1.4468291E1,1.5518638E1,1.1911416E1,6.352889E0,1.6223263E1],"categories":[],"categories_nodes":[],"categories_segments":[],"categories_sizes":[],"default_left":[1,1,1,1,0,0,1,0,0,1,0,0,0],"id":1,"left_children":[1,3,5,7,-1,-1,9,-1,-1,11,-1,-1,-1],"loss_changes":[1.5946855E3,3.9275098E2,2.1193164E2,2.3494336E2,0E0,0E0,2.544629E1,0E0,0E0,1.964502E1,0E0,0E0,0E0],"parents":[2147483647,0,0,1,1,2,2,3,3,6,6,9,9],"right_children":[2,4,6,8,-1,-1,10,-1,-1,12,-1,-1,-1],"split_conditions":[2.4782732E-1,4.3928045E-1,2.8993058E-1,5.088648E-1,1.2666274E0,1.9338992E0,5.1267725E-1,3.4936702E0,1.4468292E0,1.9555631E-1,1.1911416E0,6.352889E-1,1.6223263E0],"split_indices":[3,11,10,4,0,0,4,0,0,8,0,0,0],"split_type":[0,0,0,0,0,0,0,0,0,0,0,0,0],"sum_hessian":[1.03E2,1.3E1,9E1,9E0,4E0,1E1,8E1,6E0,3E0,1.8E1,6.2E1,2E0,1.6E1],"tree_param":{"num_deleted":"0","num_feature":"12","num_nodes":"13","size_leaf_vector":"0"}},{"base_weights":[1.42106695E1,2.3621796E1,1.2338071E1,2.844476E1,1.3357305E1,1.288593E1,8.186119E0,8.147113E0,2.9794817E1,1.4073259E1,1.0813562E1],"categories":[],"categories_nodes":[],"categories_segments":[],"categories_sizes":[],"default_left":[1,1,1,1,0,1,0,0,0,0,0],"id":2,"left_children":[1,3,5,7,-1,9,-1,-1,-1,-1,-1],"loss_changes":[1.52375E3,4.1213867E2,9.468652E1,3.1288574E1,0E0,3.4823242E1,0E0,0E0,0E0,0E0,0E0],"parents":[2147483647,0,0,1,1,2,2,3,3,5,5],"right_children":[2,4,6,8,-1,10,-1,-1,-1,-1,-1],"split_conditions":[2.511391E-1,4.3928045E-1,7.0669657E-1,1.4121129E-1,1.3357304E0,5.665248E-1,8.186119E-1,8.147113E-1,2.9794817E0,1.407326E0,1.0813563E0],"split_indices":[3,11,5,3,0,11,0,0,0,0,0],"split_type":[0,0,0,0,0,0,0,0,0,0,0],"sum_hessian":[1.02E2,1.5E1,8.7E1,9E0,6E0,7.5E1,1.2E1,1E0,8E0,4.4E1,3.1E1],"tree_param":{"num_deleted":"0","num_feature":"12","num_nodes":"11","size_leaf_vector":"0"}},{"base_weights":[1.2891328E1,2.040707E1,1.1168366E1,3.0813526E1,1.7180418E1,1.657666E1,1.0555535E1,3.0947075E0,1.0610804E1],"categories":[],"categories_nodes":[],"categories_segments":[],"categories_sizes":[],"default_left":[1,1,1,0,0,0,1,0,0],"id":3,"left_children":[1,3,5,-1,-1,-1,7,-1,-1],"loss_changes":[1.1058672E3,7.501514E1,1.1006055E2,0E0,0E0,0E0,1.4941406E-1,0E0,0E0],"parents":[2147483647,0,0,1,1,2,2,6,6],"right_children":[2,4,6,-1,-1,-1,8,-1,-1],"split_conditions":[3.1373942E-1,1.3504715E-1,2.4236542E-1,3.0813527E0,1.7180418E0,1.6576661E0,7.5842276E-2,3.0947074E-1,1.0610803E0],"split_indices":[6,10,10,0,0,0,0,0,0],"split_type":[0,0,0,0,0,0,0,0,0],"sum_hessian":[1.02E2,1.7E1,8.5E1,2E0,1.5E1,6E0,7.9E1,1E0,7.8E1],"tree_param":{"num_deleted":"0","num_feature":"12","num_nodes":"9","size_leaf_vector":"0"}},{"base_weights":[1.1775187E1,1.8680103E1,9.47008E0,2.6227083E1,1.3267421E1,1.184825E1,8.543719E0,2.8055882E1,5.7983513E0,1.4026438E1,5.30287E0,6.6790786E0,1.3720246E1,3.3435366E0,8.667523E0],"categories":[],"categories_nodes":[],"categories_segments":[],"categories_sizes":[],"default_left":[1,1,1,1,1,1,1,0,0,0,0,0,0,0,0],"id":4,"left_children":[1,3,5,7,9,11,13,-1,-1,-1,-1,-1,-1,-1,-1],"loss_changes":[1.4147549E3,6.324209E2,6.840576E1,1.7356201E2,2.2343262E1,9.221826E1,9.003906E0,0E0,0E0,0E0,0E0,0E0,0E0,0E0,0E0],"parents":[2147483647,0,0,1,1,2,2,3,3,4,4,5,5,6,6],"right_children":[2,4,6,8,10,12,14,-1,-1,-1,-1,-1,-1,-1,-1],"split_conditions":[4.0195727E-1,2.2916952E-1,5.0673795E-1,5.9159195E-1,7.063465E-1,3.5659856E-1,1.8480246E-1,2.8055882E0,5.798351E-1,1.4026438E0,5.3028697E-1,6.679079E-1,1.3720247E0,3.3435366E-1,8.667523E-1],"split_indices":[5,9,4,2,7,8,8,0,0,0,0,0,0,0,0],"split_type":[0,0,0,0,0,0,0,0,0,0,0,0,0,0,0],"sum_hessian":[9.9E1,2.3E1,7.6E1,8E0,1.5E1,1.8E1,5.8E1,7E0,1E0,1.3E1,2E0,6E0,1.2E1,2E0,5.6E1],"tree_param":{"num_deleted":"0","num_feature":"12","num_nodes":"15","size_leaf_vector":"0"}},{"base_weights":[1.1040673E1,2.1503138E1,9.555997E0,2.5119211E1,7.9911876E0,1.2217382E1,8.200745E0,6.422783E0,2.6653418E1,5.545844E0,1.3062994E1,1.2804898E1,7.7643943E0,1.3355442E1,3.02212E0],"categories":[],"categories_nodes":[],"categories_segments":[],"categories_sizes":[],"default_left":[1,1,1,1,0,1,1,0,0,0,1,0,0,0,0],"id":5,"left_children":[1,3,5,7,-1,9,11,-1,-1,-1,13,-1,-1,-1,-1],"loss_changes":[1.3944531E3,3.8559082E2,2.3163965E2,8.696826E1,0E0,9.115869E1,2.9155273E1,0E0,0E0,0E0,3.3049316E1,0E0,0E0,0E0,0E0],"parents":[2147483647,0,0,1,1,2,2,3,3,5,5,6,6,10,10],"right_children":[2,4,6,8,-1,10,12,-1,-1,-1,14,-1,-1,-1,-1],"split_conditions":[2.94825E-1,5.088648E-1,5.445205E-1,3.96014E-1,7.9911876E-1,2.813038E-1,2.6356524E-1,6.422783E-1,2.6653419E0,5.5458444E-1,8.2409596E-1,1.2804898E0,7.764394E-1,1.3355442E0,3.02212E-1],"split_indices":[5,4,4,2,0,2,10,0,0,0,10,0,0,0,0],"split_type":[0,0,0,0,0,0,0,0,0,0,0,0,0,0,0],"sum_hessian":[1.02E2,1.1E1,9.1E1,8E0,3E0,2.8E1,6.3E1,1E0,7E0,4E0,2.4E1,3E0,6E1,2.3E1,1E0],"tree_param":{"num_deleted":"0","num_feature":"12","num_nodes":"15","size_leaf_vector":"0"}},{"base_weights":[9.515741E0,1.4042081E1,7.699032E0,1.5759495E1,6.6384816E0,9.391124E0,6.6095314E0,9.604757E0,1.7467224E1,9.618677E0,1.7373765E0,2.5791705E0,6.72616E0,1.0499425E1,2.1183763E0,1.0015063E1,3.2413604E0,2.8232565E0,6.8368835E0,2.871014E0,1.0200848E1],"categories":[],"categories_nodes":[],"categories_segments":[],"categories_sizes":[],"default_left":[1,1,1,1,0,1,1,1,0,1,0,0,1,0,0,1,0,0,0,0,0],"id":6,"left_children":[1,3,5,7,-1,9,11,13,-1,15,-1,-1,17,-1,-1,19,-1,-1,-1,-1,-1],"loss_changes":[7.306406E2,2.5140283E2,7.619385E1,6.3465332E1,0E0,3.0312744E1,5.6848145E0,2.4643005E1,0E0,3.326245E1,0E0,0E0,1.0085449E0,0E0,0E0,2.5671387E0,0E0,0E0,0E0,0E0,0E0],"parents":[2147483647,0,0,1,1,2,2,3,3,5,5,6,6,7,7,9,9,12,12,15,15],"right_children":[2,4,6,8,-1,10,12,14,-1,16,-1,-1,18,-1,-1,20,-1,-1,-1,-1,-1],"split_conditions":[3.418273E-1,4.8793393E-1,5.7111204E-1,4.4699195E-1,6.6384816E-1,5.601498E-1,3.1122905E-1,5.9040344E-1,1.7467225E0,6.4925563E-1,1.7373765E-1,2.5791705E-1,1.8649243E-1,1.0499425E0,2.1183763E-1,3.956603E-1,3.2413605E-1,2.8232566E-1,6.8368834E-1,2.8710142E-1,1.0200847E0],"split_indices":[0,11,4,8,0,3,6,4,0,7,0,0,8,0,0,0,0,0,0,0,0],"split_type":[0,0,0,0,0,0,0,0,0,0,0,0,0,0,0,0,0,0,0,0,0],"sum_hessian":[1.01E2,2.7E1,7.4E1,2.1E1,6E0,2.6E1,4.8E1,6E0,1.5E1,2.5E1,1E0,2E0,4.6E1,5E0,1E0,2.3E1,2E0,2E0,4.4E1,1E0,2.2E1],"tree_param":{"num_deleted":"0","num_feature":"12","num_nodes":"21","size_leaf_vector":"0"}},{"base_weights":[8.270129E0,1.12443905E1,6.5553784E0,4.688235E0,1.2122282E1,8.906319E0,6.0059595E0,1.2828865E1,6.922278E0,1.0295623E1,5.180028E0,2.7806783E0,6.1290874E0,7.7188883E0,1.3921292E1,2.3466158E0,6.2257233E0],"categories":[],"categories_nodes":[],"categories_segments":[],"categories_sizes":[],"default_left":[1,1,1,0,1,1,1,1,0,0,0,0,1,0,0,0,0],"id":7,"left_children":[1,3,5,-1,7,9,11,13,-1,-1,-1,-1,15,-1,-1,-1,-1],"loss_changes":[4.6180078E2,1.56125E2,3.5633057E1,0E0,2.8770996E1,3.6148071E0,6.387451E0,4.326465E1,0E0,0E0,0E0,0E0,5.859619E0,0E0,0E0,0E0,0E0],"parents":[2147483647,0,0,1,1,2,2,4,4,5,5,6,6,7,7,12,12],"right_children":[2,4,6,-1,8,10,12,14,-1,-1,-1,-1,16,-1,-1,-1,-1],"split_conditions":[5.163703E-1,2.813038E-1,2.9584217E-1,4.688235E-1,7.703843E-1,3.8207346E-1,1.8649243E-1,4.3938732E-1,6.922278E-1,1.0295624E0,5.180028E-1,2.7806783E-1,5.27073E-1,7.7188885E-1,1.3921293E0,2.3466158E-1,6.2257236E-1],"split_indices":[4,2,9,0,10,3,8,8,0,0,0,0,4,0,0,0,0],"split_type":[0,0,0,0,0,0,0,0,0,0,0,0,0,0,0,0,0],"sum_hessian":[1.04E2,3.6E1,6.8E1,5E0,3.1E1,1E1,5.8E1,2.6E1,5E0,6E0,4E0,3E0,5.5E1,6E0,2E1,2E0,5.3E1],"tree_param":{"num_deleted":"0","num_feature":"12","num_nodes":"17","size_leaf_vector":"0"}},{"base_weights":[8.005749E0,1.760218E1,7.1133566E0,2.375467E1,5.5110245E0,8.377836E0,5.2436075E0,4.4725413E0,8.947407E0,2.5609121E0,5.464415E0,9.454808E0,4.6972804E0,3.2776845E0,9.9050236E-1,2.1717968E0,5.590513E0],"categories":[],"categories_nodes":[],"categories_segments":[],"categories_sizes":[],"default_left":[1,1,1,0,0,1,1,0,1,1,1,0,0,0,0,0,0],"id":8,"left_children":[1,3,5,-1,-1,7,9,-1,11,13,15,-1,-1,-1,-1,-1,-1],"loss_changes":[7.482949E2,4.642129E2,1.8067432E2,0E0,0E0,8.232129E1,1.0292847E1,0E0,5.6944824E1,2.3815765E0,3.2208252E0,0E0,0E0,0E0,0E0,0E0,0E0],"parents":[2147483647,0,0,1,1,2,2,5,5,6,6,8,8,9,9,10,10],"right_children":[2,4,6,-1,-1,8,10,-1,12,14,16,-1,-1,-1,-1,-1,-1],"split_conditions":[2.2783205E-1,5.9159195E-1,5.665248E-1,2.375467E0,5.5110246E-1,2.813038E-1,2.193692E-1,4.4725415E-1,6.3482213E-1,5.7293856E-1,2.0528752E-1,9.454808E-1,4.6972805E-1,3.2776845E-1,9.905024E-2,2.1717969E-1,5.5905133E-1],"split_indices":[11,2,5,0,0,2,2,0,9,1,8,0,0,0,0,0,0],"split_type":[0,0,0,0,0,0,0,0,0,0,0,0,0,0,0,0,0],"sum_hessian":[1.01E2,7E0,9.4E1,4E0,3E0,5.4E1,4E1,8E0,4.6E1,4E0,3.6E1,4E1,6E0,2E0,2E0,2E0,3.4E1],"tree_param":{"num_deleted":"0","num_feature":"12","num_nodes":"17","size_leaf_vector":"0"}},{"base_weights":[7.408294E0,1.612572E1,6.4126887E0,2.1812405E1,6.076553E0,8.009434E0,5.3026505E0,8.801641E0,4.0374727E0,6.0665436E0,4.3620024E0,9.011272E0,1.3611734E0,1.6168995E0,6.3266287E0,1.7929844E0,4.481468E0,4.2359395E0,9.605888E0,6.460239E0,1.3595772E0],"categories":[],"categories_nodes":[],"categories_segments":[],"categories_sizes":[],"default_left":[1,1,1,0,0,1,1,1,0,1,1,1,0,0,1,0,0,0,0,0,0],"id":9,"left_children":[1,3,5,-1,-1,7,9,11,-1,13,15,17,-1,-1,19,-1,-1,-1,-1,-1,-1],"loss_changes":[7.9921875E2,4.3892065E2,1.2591138E2,0E0,0E0,8.088843E1,1.5932495E1,3.452661E1,0E0,2.4489136E1,1.1721191E0,4.1655273E1,0E0,0E0,9.79895E0,0E0,0E0,0E0,0E0,0E0,0E0],"parents":[2147483647,0,0,1,1,2,2,5,5,6,6,7,7,9,9,10,10,11,11,14,14],"right_children":[2,4,6,-1,-1,8,10,12,-1,14,16,18,-1,-1,20,-1,-1,-1,-1,-1,-1],"split_conditions":[2.7923173E-1,5.088648E-1,4.7806764E-1,2.1812406E0,6.076553E-1,6.251081E-1,5.528674E-1,7.5287724E-1,4.037473E-1,3.4166738E-1,3.464968E-1,2.8448907E-1,1.3611734E-1,1.6168995E-1,9.5544195E-1,1.7929845E-1,4.4814682E-1,4.2359397E-1,9.605889E-1,6.460239E-1,1.3595772E-1],"split_indices":[5,4,11,0,0,3,5,5,0,5,0,2,0,0,6,0,0,0,0,0,0],"split_type":[0,0,0,0,0,0,0,0,0,0,0,0,0,0,0,0,0,0,0,0,0],"sum_hessian":[1.03E2,9E0,9.4E1,5E0,4E0,3.6E1,5.8E1,2.9E1,7E0,2.9E1,2.9E1,2.8E1,1E0,2E0,2.7E1,2E0,2.7E1,4E0,2.4E1,2.6E1,1E0],"tree_param":{"num_deleted":"0","num_feature":"12","num_nodes":"21","size_leaf_vector":"0"}},{"base_weights":[6.6405077E0,1.4885103E1,5.8681965E0,1.7107195E1,5.479221E0,8.154566E0,4.7226686E0,5.404571E0,1.0544256E1,5.715393E0,3.7084656E0,6.341544E0,3.6749053E0,1.0264354E0,1.1150784E1,1.0295777E0,5.8372674E0,1.8015219E0,3.9662387E0,1.3244508E1,7.1649876E0,1.2657471E0,5.9512596E0,2.2717018E0,5.741081E-1],"categories":[],"categories_nodes":[],"categories_segments":[],"categories_sizes":[],"default_left":[1,1,1,0,0,1,1,1,1,1,1,0,0,0,1,0,1,1,0,0,0,0,0,0,0],"id":10,"left_children":[1,3,5,-1,-1,7,9,11,13,15,17,-1,-1,-1,19,-1,21,23,-1,-1,-1,-1,-1,-1,-1],"loss_changes":[5.557583E2,7.347168E1,2.0768408E2,0E0,0E0,1.4016187E2,4.424817E1,2.6258545E0,7.514673E1,1.1693665E1,1.0059326E1,0E0,0E0,0E0,2.1935547E1,0E0,8.100647E0,2.15843E0,0E0,0E0,0E0,0E0,0E0,0E0,0E0],"parents":[2147483647,0,0,1,1,2,2,5,5,6,6,7,7,8,8,9,9,10,10,14,14,16,16,17,17],"right_children":[2,4,6,-1,-1,8,10,12,14,16,18,-1,-1,-1,20,-1,22,24,-1,-1,-1,-1,-1,-1,-1],"split_conditions":[2.3826227E-1,5.194736E-1,5.1267725E-1,1.7107195E0,5.479221E-1,4.87211E-1,5.308572E-1,2.7956146E-1,3.245467E-1,5.27073E-1,3.6671674E-1,6.3415444E-1,3.6749053E-1,1.0264354E-1,5.473685E-1,1.0295778E-1,1.01564154E-1,3.517673E-1,3.9662388E-1,1.3244509E0,7.164988E-1,1.2657471E-1,5.95126E-1,2.2717018E-1,5.7410814E-2],"split_indices":[10,11,4,0,0,2,7,3,10,4,3,0,0,0,7,0,0,3,0,0,0,0,0,0,0],"split_type":[0,0,0,0,0,0,0,0,0,0,0,0,0,0,0,0,0,0,0,0,0,0,0,0,0],"sum_hessian":[1E2,7E0,9.3E1,5E0,2E0,2.9E1,6.4E1,1.5E1,1.4E1,3E1,3.4E1,8E0,7E0,1E0,1.3E1,1E0,2.9E1,5E0,2.9E1,7E0,6E0,1E0,2.8E1,3E0,2E0],"tree_param":{"num_deleted":"0","num_feature":"12","num_nodes":"25","size_leaf_vector":"0"}},{"base_weights":[6.118142E0,1.2549406E1,4.806215E0,1.5055864E1,6.8179154E0,6.480031E0,4.077283E0,1.6984173E1,4.252318E0,1.796402E0,6.809199E0,4.8013854E0,3.2031376E0,1.1688839E1,2.3678558E1,7.52158E0,4.106387E0,9.7809887E-1,4.8902974E0,1.5023428E0,3.3924532E0,9.751134E-1,4.4657474E0,3.0596611E0,5.280489E0,1.9680706E0,5.35834E-1,3.6448174E0,2.1146722E0],"categories":[],"categories_nodes":[],"categories_segments":[],"categories_sizes":[],"default_left":[1,1,1,1,0,1,1,1,0,0,1,1,1,0,0,0,1,0,1,1,1,0,0,0,0,0,0,0,0],"id":11,"left_children":[1,3,5,7,-1,9,11,13,-1,-1,15,17,19,-1,-1,-1,21,-1,23,25,27,-1,-1,-1,-1,-1,-1,-1,-1],"loss_changes":[8.171697E2,1.4156787E2,8.094763E1,1.5693604E2,0E0,2.6310425E1,2.5130615E1,4.2266113E1,0E0,0E0,1.33984375E1,6.4346924E0,5.2069397E0,0E0,0E0,0E0,3.5221786E0,0E0,6.70105E0,1.1960907E0,1.3215027E0,0E0,0E0,0E0,0E0,0E0,0E0,0E0,0E0],"parents":[2147483647,0,0,1,1,2,2,3,3,5,5,6,6,7,7,10,10,11,11,12,12,16,16,18,18,19,19,20,20],"right_children":[2,4,6,8,-1,10,12,14,-1,-1,16,18,20,-1,-1,-1,22,-1,24,26,28,-1,-1,-1,-1,-1,-1,-1,-1],"split_conditions":[2.4782732E-1,5.088648E-1,5.1433724E-1,4.3928045E-1,6.8179154E-1,2.3713744E-1,5.308572E-1,5.274396E-1,4.2523178E-1,1.796402E-1,6.230961E-1,5.27073E-1,3.748158E-1,1.1688839E0,2.3678558E0,7.5215805E-1,3.8604033E-1,9.780989E-2,3.5500732E-1,3.394942E-1,6.8067193E-1,9.751134E-2,4.4657475E-1,3.059661E-1,5.2804893E-1,1.9680707E-1,5.3583402E-2,3.6448175E-1,2.1146722E-1],"split_indices":[3,10,4,11,0,8,7,7,0,0,8,4,3,0,0,0,5,0,9,3,9,0,0,0,0,0,0,0,0],"split_type":[0,0,0,0,0,0,0,0,0,0,0,0,0,0,0,0,0,0,0,0,0,0,0,0,0,0,0,0,0],"sum_hessian":[1.03E2,1.6E1,8.7E1,1E1,6E0,2.4E1,6.3E1,8E0,2E0,2E0,2.2E1,3.2E1,3.1E1,6E0,2E0,1.6E1,6E0,1E0,3.1E1,4E0,2.7E1,1E0,5E0,7E0,2.4E1,2E0,2E0,2.1E1,6E0],"tree_param":{"num_deleted":"0","num_feature":"12","num_nodes":"29","size_leaf_vector":"0"}},{"base_weights":[5.411829E0,1.0936982E1,4.3731337E0,1.484488E1,5.661961E0,2.6297777E0,4.623688E0,1.9881298E1,7.8467693E0,4.0271854E0,1.8078368E0,5.371749E0,3.9088178E0,3.7795797E-1,2.1180618E0,2.1102903E0,5.6275516E0,2.7372944E0,4.414893E0,5.760765E0,8.8217974E-1,3.6148953E0,2.0895402E0,4.7209663E0,2.1239774E0],"categories":[],"categories_nodes":[],"categories_segments":[],"categories_sizes":[],"default_left":[1,1,1,1,0,1,1,0,0,0,1,1,1,0,0,0,1,1,1,0,0,0,0,0,0],"id":12,"left_children":[1,3,5,7,-1,9,11,-1,-1,-1,13,15,17,-1,-1,-1,19,21,23,-1,-1,-1,-1,-1,-1],"loss_changes":[5.203274E2,2.2516248E2,2.4969238E1,1.2595947E2,0E0,7.651123E0,1.8040771E1,0E0,0E0,0E0,3.6353035E0,1.5655823E1,1.2223145E1,0E0,0E0,0E0,1.3882385E1,9.735794E-1,8.904907E0,0E0,0E0,0E0,0E0,0E0,0E0],"parents":[2147483647,0,0,1,1,2,2,3,3,5,5,6,6,10,10,11,11,12,12,16,16,17,17,18,18],"right_children":[2,4,6,8,-1,10,12,-1,-1,-1,14,16,18,-1,-1,-1,20,22,24,-1,-1,-1,-1,-1,-1],"split_conditions":[2.4157868E-1,5.088648E-1,2.847631E-1,2.3192948E-1,5.6619614E-1,1.8576804E-1,5.8642024E-1,1.9881299E0,7.8467697E-1,4.0271854E-1,2.1828881E-1,2.4447417E-1,6.767585E-1,3.7795797E-2,2.1180618E-1,2.1102904E-1,7.511432E-1,6.159474E-1,8.2409596E-1,5.760765E-1,8.821797E-2,3.6148953E-1,2.0895402E-1,4.7209665E-1,2.1239774E-1],"split_indices":[3,10,8,9,0,2,10,0,0,0,2,9,10,0,0,0,2,10,10,0,0,0,0,0,0],"split_type":[0,0,0,0,0,0,0,0,0,0,0,0,0,0,0,0,0,0,0,0,0,0,0,0,0],"sum_hessian":[9.8E1,1.4E1,8.4E1,7E0,7E0,1.2E1,7.2E1,3E0,4E0,3E0,9E0,3.2E1,4E1,2E0,7E0,3E0,2.9E1,1.4E1,2.6E1,2.8E1,1E0,4E0,1E1,2.2E1,4E0],"tree_param":{"num_deleted":"0","num_feature":"12","num_nodes":"25","size_leaf_vector":"0"}},{"base_weights":[4.8305902E0,1.9926609E1,4.493834E0,6.16715E0,3.4777172E0,6.474916E0,1.9324119E0,4.278358E0,2.623464E0,2.6879575E0,6.8768473E0,6.6258774E0,3.8227434E0,1.1432022E0,2.7775881E0,4.5925694E0,7.6025715E0,1.9355567E0,4.0386353E0,1.487475E0,4.1786194E-1,3.2051618E0,2.0294514E0],"categories":[],"categories_nodes":[],"categories_segments":[],"categories_sizes":[],"default_left":[1,0,1,1,1,1,0,1,1,0,1,0,1,1,1,0,0,0,0,0,0,0,0],"id":13,"left_children":[1,-1,3,5,7,9,-1,11,13,-1,15,-1,17,19,21,-1,-1,-1,-1,-1,-1,-1,-1],"loss_changes":[4.4423877E2,0E0,1.5538208E2,3.701355E1,3.4600525E1,3.478882E1,0E0,9.966553E0,4.8097076E0,0E0,1.6475098E1,0E0,4.405884E0,6.270156E-1,3.4116669E0,0E0,0E0,0E0,0E0,0E0,0E0,0E0,0E0],"parents":[2147483647,0,0,2,2,3,3,4,4,5,5,7,7,8,8,10,10,12,12,13,13,14,14],"right_children":[2,-1,4,6,8,10,-1,12,14,-1,16,-1,18,20,22,-1,-1,-1,-1,-1,-1,-1,-1],"split_conditions":[1.7072434E-2,1.9926609E0,5.445205E-1,5.922733E-1,5.308572E-1,3.5945904E-1,1.932412E-1,3.6538047E-1,3.6671674E-1,2.6879576E-1,3.7853283E-1,6.6258776E-1,4.1522172E-1,3.394942E-1,6.2102544E-1,4.5925695E-1,7.602572E-1,1.9355567E-1,4.0386352E-1,1.487475E-1,4.1786194E-2,3.205162E-1,2.0294514E-1],"split_indices":[10,0,4,5,7,1,0,5,3,0,8,0,0,3,0,0,0,0,0,0,0,0,0],"split_type":[0,0,0,0,0,0,0,0,0,0,0,0,0,0,0,0,0,0,0,0,0,0,0],"sum_hessian":[1.04E2,1E0,1.03E2,3.7E1,6.6E1,3.4E1,3E0,3.2E1,3.4E1,4E0,3E1,3E0,2.9E1,4E0,3E1,9E0,2.1E1,4E0,2.5E1,2E0,2E0,1.7E1,1.3E1],"tree_param":{"num_deleted":"0","num_feature":"12","num_nodes":"23","size_leaf_vector":"0"}},{"base_weights":[4.630178E0,1.1562611E1,3.8936718E0,6.3561015E0,1.9856928E1,7.1237707E0,3.6230407E0,1.5926394E0,6.8845716E0,4.004631E0,2.6895812E0,1.6666975E0,7.594807E0,3.5235522E0,5.4358673E0,2.877943E0,1.2475277E0,3.7293255E0,1.0491893E0,2.0695367E0,6.238813E0,2.4023955E0,3.904187E0],"categories":[],"categories_nodes":[],"categories_segments":[],"categories_sizes":[],"default_left":[1,1,1,1,0,0,1,0,1,1,1,0,0,1,1,1,0,0,0,0,0,0,0],"id":14,"left_children":[1,3,5,7,-1,-1,9,-1,11,13,15,-1,-1,17,19,21,-1,-1,-1,-1,-1,-1,-1],"loss_changes":[4.6045117E2,2.6244727E2,5.3739258E1,6.6567993E0,0E0,0E0,1.9862305E1,0E0,9.57724E0,2.1470215E1,4.0152893E0,0E0,0E0,2.001764E1,2.2227264E1,2.333252E0,0E0,0E0,0E0,0E0,0E0,0E0,0E0],"parents":[2147483647,0,0,1,1,2,2,3,3,6,6,8,8,9,9,10,10,13,13,14,14,15,15],"right_children":[2,4,6,8,-1,-1,10,-1,12,14,16,-1,-1,18,20,22,-1,-1,-1,-1,-1,-1,-1],"split_conditions":[2.2778445E-1,5.1856434E-1,2.8993058E-1,1.944155E-1,1.9856929E0,7.123771E-1,6.123991E-1,1.5926395E-1,1.20591745E-1,6.713499E-1,7.7662414E-1,1.6666976E-1,7.594807E-1,6.2844324E-1,4.700026E-1,7.258133E-1,1.24752775E-1,3.7293255E-1,1.04918934E-1,2.0695367E-1,6.238813E-1,2.4023955E-1,3.904187E-1],"split_indices":[3,2,4,1,0,0,0,0,0,2,4,0,0,2,1,4,0,0,0,0,0,0,0],"split_type":[0,0,0,0,0,0,0,0,0,0,0,0,0,0,0,0,0,0,0,0,0,0,0],"sum_hessian":[9.8E1,8E0,9E1,6E0,2E0,5E0,8.5E1,1E0,5E0,5.8E1,2.7E1,1E0,4E0,4.6E1,1.2E1,2.3E1,4E0,4.2E1,4E0,3E0,9E0,1.8E1,5E0],"tree_param":{"num_deleted":"0","num_feature":"12","num_nodes":"23","size_leaf_vector":"0"}},{"base_weights":[4.1283836E0,1.7937431E1,3.817144E0,5.937223E0,3.1941948E0,6.9918203E0,1.9596596E0,5.5898714E0,2.9971483E0,7.6242204E0,3.030464E0,-2.1012926E-1,2.4356432E0,8.4693575E-1,6.5638714E0,3.9317727E0,2.6453683E0,3.034626E0,1.0247793E0,4.6481514E-1,4.312308E0,6.8561554E-2,2.6886141E0],"categories":[],"categories_nodes":[],"categories_segments":[],"categories_sizes":[],"default_left":[1,0,1,1,1,1,1,1,1,0,0,0,1,0,0,1,1,0,0,0,0,0,0],"id":15,"left_children":[1,-1,3,5,7,9,11,13,15,-1,-1,-1,17,-1,-1,19,21,-1,-1,-1,-1,-1,-1],"loss_changes":[3.742168E2,0E0,1.15746826E2,7.85824E1,2.1483276E1,1.948285E1,6.7085037E0,1.753891E1,1.4915222E1,0E0,0E0,0E0,1.115593E0,0E0,0E0,2.3062286E1,6.3903503E0,0E0,0E0,0E0,0E0,0E0,0E0],"parents":[2147483647,0,0,2,2,3,3,4,4,5,5,6,6,7,7,8,8,12,12,15,15,16,16],"right_children":[2,-1,4,6,8,10,12,14,16,-1,-1,-1,18,-1,-1,20,22,-1,-1,-1,-1,-1,-1],"split_conditions":[5.7052735E-2,1.7937431E0,3.3484212E-1,5.5234814E-1,2.4236542E-1,5.680219E-1,2.1436357E-1,3.9714062E-1,5.1267725E-1,7.62422E-1,3.030464E-1,-2.1012926E-2,5.0968003E-1,8.469357E-2,6.5638715E-1,3.845024E-1,3.460975E-1,3.034626E-1,1.0247793E-1,4.6481516E-2,4.3123078E-1,6.8561556E-3,2.688614E-1],"split_indices":[10,0,6,1,10,10,2,2,4,0,0,0,2,0,0,10,6,0,0,0,0,0,0],"split_type":[0,0,0,0,0,0,0,0,0,0,0,0,0,0,0,0,0,0,0,0,0,0,0],"sum_hessian":[1.02E2,1E0,1.01E2,2.1E1,8E1,1.6E1,5E0,4E0,7.6E1,1.3E1,3E0,1E0,4E0,1E0,3E0,1.8E1,5.8E1,2E0,2E0,2E0,1.6E1,1E0,5.7E1],"tree_param":{"num_deleted":"0","num_feature":"12","num_nodes":"23","size_leaf_vector":"0"}},{"base_weights":[3.5721366E0,6.6514544E0,3.0192266E0,7.8812256E0,1.2992775E0,4.3473296E0,2.6268213E0,8.913049E0,1.8147411E0,4.6349564E0,1.2683334E0,2.8701358E0,1.5958364E0,4.7782297E0,1.1712914E0,2.3901982E0,3.579067E0,1.9214165E0,9.0274537E-1,1.8564209E0,5.06303E0,7.952926E-1,2.5075343E0,2.4191973E0,5.1614556E0,2.0347328E0,4.5078564E-1,3.567699E-1,1.0497816E0],"categories":[],"categories_nodes":[],"categories_segments":[],"categories_sizes":[],"default_left":[1,1,1,1,0,1,1,0,0,1,0,1,1,1,0,1,1,1,1,0,0,0,0,0,0,0,0,0,0],"id":16,"left_children":[1,3,5,7,-1,9,11,-1,-1,13,-1,15,17,19,-1,21,23,25,27,-1,-1,-1,-1,-1,-1,-1,-1,-1,-1],"loss_changes":[1.5698682E2,8.848944E1,3.548419E1,5.8939575E1,0E0,1.0947784E1,1.3481232E1,0E0,0E0,2.839569E0,0E0,1.0839142E1,1.8759575E0,3.914978E0,0E0,4.929962E0,2.6056091E1,7.4922943E-1,1.8741703E-1,0E0,0E0,0E0,0E0,0E0,0E0,0E0,0E0,0E0,0E0],"parents":[2147483647,0,0,1,1,2,2,3,3,5,5,6,6,9,9,11,11,12,12,13,13,15,15,16,16,17,17,18,18],"right_children":[2,4,6,8,-1,10,12,-1,-1,14,-1,16,18,20,-1,22,24,26,28,-1,-1,-1,-1,-1,-1,-1,-1,-1,-1],"split_conditions":[2.4782732E-1,3.8912013E-1,4.5905632E-1,6.1109555E-1,1.2992775E-1,6.175466E-1,6.8545675E-1,8.913049E-1,1.8147412E-1,7.1858525E-1,1.2683335E-1,5.6111616E-1,6.3570267E-1,2.6599517E-1,1.1712914E-1,3.8008174E-1,5.1947933E-1,8.8302547E-1,6.4282155E-1,1.856421E-1,5.06303E-1,7.952926E-2,2.5075343E-1,2.4191974E-1,5.161456E-1,2.0347328E-1,4.5078564E-2,3.567699E-2,1.0497816E-1],"split_indices":[9,5,10,2,0,7,7,0,0,5,0,1,5,2,0,5,8,6,1,0,0,0,0,0,0,0,0,0,0],"split_type":[0,0,0,0,0,0,0,0,0,0,0,0,0,0,0,0,0,0,0,0,0,0,0,0,0,0,0,0,0],"sum_hessian":[1.03E2,1.4E1,8.9E1,1.1E1,3E0,1.8E1,7.1E1,9E0,2E0,1.6E1,2E0,5.6E1,1.5E1,1.5E1,1E0,3.6E1,2E1,9E0,6E0,2E0,1.3E1,3E0,3.3E1,1.3E1,7E0,8E0,1E0,2E0,4E0],"tree_param":{"num_deleted":"0","num_feature":"12","num_nodes":"29","size_leaf_vector":"0"}},{"base_weights":[3.259225E0,1.6594908E1,2.9568956E0,5.068497E0,2.2511675E0,7.1142445E0,3.6009831E0,2.4902837E0,1.342333E0,7.780996E0,8.901167E-1,3.8376663E0,2.5369167E-2,2.789016E0,1.7683051E0,1.1136055E-1,1.686085E0,5.885525E-1,4.027706E0,2.137453E0,3.3966668E0,2.2400508E0,1.2671369E0,2.8542256E-1,-2.9244375E-1,8.8842714E-1,1.9163054E0],"categories":[],"categories_nodes":[],"categories_segments":[],"categories_sizes":[],"default_left":[1,0,1,1,1,1,1,1,1,0,0,1,0,1,1,1,1,0,0,0,0,0,0,0,0,0,0],"id":17,"left_children":[1,-1,3,5,7,9,11,13,15,-1,-1,17,-1,19,21,23,25,-1,-1,-1,-1,-1,-1,-1,-1,-1,-1],"loss_changes":[3.5410718E2,0E0,1.361214E2,4.6433594E1,1.3173309E1,3.0423523E1,1.3443237E1,7.7931824E0,7.4289246E0,0E0,0E0,6.8914185E0,0E0,8.576691E0,1.8900223E0,4.3490502E-1,8.6842346E-1,0E0,0E0,0E0,0E0,0E0,0E0,0E0,0E0,0E0,0E0],"parents":[2147483647,0,0,2,2,3,3,4,4,5,5,6,6,7,7,8,8,11,11,13,13,14,14,15,15,16,16],"right_children":[2,-1,4,6,8,10,12,14,16,-1,-1,18,-1,20,22,24,26,-1,-1,-1,-1,-1,-1,-1,-1,-1,-1],"split_conditions":[1.7072434E-2,1.6594908E0,4.0245363E-1,3.916909E-1,6.963411E-1,5.665865E-1,6.9350517E-1,5.981238E-1,5.755782E-1,7.780996E-1,8.901167E-2,1.4088157E-1,2.5369169E-3,4.5077837E-1,5.5307066E-1,5.561647E-1,6.5662265E-1,5.8855247E-2,4.027706E-1,2.1374531E-1,3.396667E-1,2.2400509E-1,1.267137E-1,2.8542256E-2,-2.9244376E-2,8.884271E-2,1.9163054E-1],"split_indices":[10,0,5,10,5,1,11,0,0,0,0,11,0,3,6,0,3,0,0,0,0,0,0,0,0,0,0],"split_type":[0,0,0,0,0,0,0,0,0,0,0,0,0,0,0,0,0,0,0,0,0,0,0,0,0,0,0],"sum_hessian":[9.9E1,1E0,9.8E1,2.3E1,7.5E1,8E0,1.5E1,5.8E1,1.7E1,7E0,1E0,1.4E1,1E0,3.9E1,1.9E1,4E0,1.3E1,1E0,1.3E1,2.1E1,1.8E1,8E0,1.1E1,3E0,1E0,4E0,9E0],"tree_param":{"num_deleted":"0","num_feature":"12","num_nodes":"27","size_leaf_vector":"0"}},{"base_weights":[3.1720881E0,1.57651615E1,2.894066E0,4.5432673E0,2.3283727E0,5.445124E0,1.9461807E0,2.575572E0,1.11843E0,1.500828E0,6.4648643E0,2.993474E0,7.191099E-1,4.857937E0,2.3836863E0,1.00083925E-1,1.4796392E0,2.1058898E0,-4.5970964E-1,1.5398827E0,7.1573706E0,9.558499E-1,-1.1392498E-1,2.5847633E0,1.099718E0,2.6401567E-1,-2.7782154E-1,1.5695927E0,2.9005146E-1],"categories":[],"categories_nodes":[],"categories_segments":[],"categories_sizes":[],"default_left":[1,0,1,1,1,1,1,1,1,1,1,0,1,0,1,1,1,0,0,0,0,0,0,0,0,0,0,0,0],"id":18,"left_children":[1,-1,3,5,7,9,11,13,15,17,19,-1,21,-1,23,25,27,-1,-1,-1,-1,-1,-1,-1,-1,-1,-1,-1,-1],"loss_changes":[3.1499304E2,0E0,8.458179E1,4.7957764E1,2.0448975E1,6.2696167E1,8.128187E0,1.6449219E1,5.3694515E0,6.899332E0,3.6726685E1,0E0,1.0949585E0,0E0,1.29062805E1,3.8310277E-1,7.2182083E-1,0E0,0E0,0E0,0E0,0E0,0E0,0E0,0E0,0E0,0E0,0E0,0E0],"parents":[2147483647,0,0,2,2,3,3,4,4,5,5,6,6,7,7,8,8,9,9,10,10,12,12,14,14,15,15,16,16],"right_children":[2,-1,4,6,8,10,12,14,16,18,20,-1,22,-1,24,26,28,-1,-1,-1,-1,-1,-1,-1,-1,-1,-1,-1,-1],"split_conditions":[1.7072434E-2,1.5765162E0,4.0195727E-1,4.5385015E-1,6.963411E-1,4.2255962E-1,5.2954125E-1,2.3792666E-1,5.755782E-1,4.1151464E-1,2.072954E-1,2.993474E-1,4.987215E-1,4.8579368E-1,6.976596E-1,5.561647E-1,7.45775E-1,2.1058898E-1,-4.5970965E-2,1.5398827E-1,7.1573704E-1,9.558499E-2,-1.1392498E-2,2.5847635E-1,1.099718E-1,2.6401568E-2,-2.7782155E-2,1.5695928E-1,2.9005146E-2],"split_indices":[10,0,5,11,5,1,1,10,0,1,11,0,0,0,0,0,9,0,0,0,0,0,0,0,0,0,0,0,0],"split_type":[0,0,0,0,0,0,0,0,0,0,0,0,0,0,0,0,0,0,0,0,0,0,0,0,0,0,0,0,0],"sum_hessian":[1.02E2,1E0,1.01E2,2.4E1,7.7E1,1.7E1,7E0,6.3E1,1.4E1,4E0,1.3E1,3E0,4E0,3E0,6E1,4E0,1E1,3E0,1E0,2E0,1.1E1,3E0,1E0,5.1E1,9E0,3E0,1E0,9E0,1E0],"tree_param":{"num_deleted":"0","num_feature":"12","num_nodes":"29","size_leaf_vector":"0"}},{"base_weights":[2.9171932E0,1.4976904E1,2.6597016E0,4.1239796E0,1.9312968E0,5.712859E0,2.3942611E0,3.258821E0,1.6384839E0,1.0030876E0,6.2739563E0,5.856344E-1,2.8691804E0,2.351958E-1,3.8400266E0,1.4899211E0,3.3830233E0,1.3374557E0,1.6717577E-1,6.6662784E0,3.9072514E-1,1.0871166E0,-1.1105919E-1,4.918747E-1,3.2244086E0,-2.6393032E-1,6.16724E-1,4.1445885E0,5.494838E-1,2.0262012E0,9.57477E-1],"categories":[],"categories_nodes":[],"categories_segments":[],"categories_sizes":[],"default_left":[1,0,1,1,1,1,1,1,1,1,1,1,1,1,1,1,0,0,0,0,0,0,0,0,0,0,0,0,0,0,0],"id":19,"left_children":[1,-1,3,5,7,9,11,13,15,17,19,21,23,25,27,29,-1,-1,-1,-1,-1,-1,-1,-1,-1,-1,-1,-1,-1,-1,-1],"loss_changes":[2.8932495E2,0E0,1.0402704E2,7.976465E1,2.264801E1,3.863147E1,1.3780838E1,2.018502E1,1.076915E1,6.1491656E-1,3.2017212E1,1.8676313E0,1.0236801E1,7.340642E-1,7.7443695E0,1.4621231E1,0E0,0E0,0E0,0E0,0E0,0E0,0E0,0E0,0E0,0E0,0E0,0E0,0E0,0E0,0E0],"parents":[2147483647,0,0,2,2,3,3,4,4,5,5,6,6,7,7,8,8,9,9,10,10,11,11,12,12,13,13,14,14,15,15],"right_children":[2,-1,4,6,8,10,12,14,16,18,20,22,24,26,28,30,-1,-1,-1,-1,-1,-1,-1,-1,-1,-1,-1,-1,-1,-1,-1],"split_conditions":[1.7072434E-2,1.4976904E0,5.07958E-1,4.450915E-1,3.881921E-1,3.7105957E-1,3.5659856E-1,2.6625204E-1,7.924621E-1,5.1559144E-1,5.645046E-1,2.5764456E-1,3.8887548E-1,5.891247E-1,6.3081074E-1,5.6316483E-1,3.3830234E-1,1.3374558E-1,1.6717577E-2,6.666278E-1,3.9072514E-2,1.0871166E-1,-1.1105919E-2,4.918747E-2,3.2244086E-1,-2.6393032E-2,6.16724E-2,4.1445884E-1,5.494838E-2,2.0262013E-1,9.57477E-2],"split_indices":[10,0,4,11,7,8,8,8,9,0,9,2,7,0,2,11,0,0,0,0,0,0,0,0,0,0,0,0,0,0,0],"split_type":[0,0,0,0,0,0,0,0,0,0,0,0,0,0,0,0,0,0,0,0,0,0,0,0,0,0,0,0,0,0,0],"sum_hessian":[1.05E2,1E0,1.04E2,3.3E1,7.1E1,1.6E1,1.7E1,1.1E1,6E1,2E0,1.4E1,4E0,1.3E1,2E0,9E0,5.7E1,3E0,1E0,1E0,1.3E1,1E0,2E0,2E0,2E0,1.1E1,1E0,1E0,8E0,1E0,2.7E1,3E1],"tree_param":{"num_deleted":"0","num_feature":"12","num_nodes":"31","size_leaf_vector":"0"}},{"base_weights":[2.5013402E0,4.018476E0,1.9703672E0,-4.7300655E-2,4.3592615E0,2.1747677E0,7.6535165E-1,5.3668227E0,2.6806147E0,4.1322374E-1,2.3101628E0,1.6130257E-1,1.0158954E0,5.9749537E0,1.1453584E0,3.4476235E0,1.0706794E0,1.0915782E0,-6.289902E-1,4.1224732E0,2.078864E0,3.2699513E-1,-2.5073385E-1,1.7739439E-1,1.0985337E0,2.9558792E0,7.1150055E0,5.000715E-1,3.8555367E0,1.3868908E0,3.9757505E-1,2.0984411E-1,1.3155416E0,-7.700381E-1,-1.7344713E-1,5.0307837E0,-2.0953894E-1,4.3214664E-1,2.1949909E0,1.1904172E0,2.2767496E-1],"categories":[],"categories_nodes":[],"categories_segments":[],"categories_sizes":[],"default_left":[1,1,1,0,1,1,1,1,1,1,1,1,1,1,0,1,1,1,1,1,1,0,0,0,1,0,0,0,0,0,0,0,0,0,0,0,0,0,0,0,0],"id":20,"left_children":[1,3,5,-1,7,9,11,13,15,17,19,21,23,25,-1,27,29,31,33,35,37,-1,-1,-1,39,-1,-1,-1,-1,-1,-1,-1,-1,-1,-1,-1,-1,-1,-1,-1,-1],"loss_changes":[7.586017E1,3.6230713E1,1.7793701E1,0E0,2.6205719E1,1.5025177E1,1.8035626E0,2.9097412E1,9.891884E0,4.928535E0,1.7419434E1,4.233456E-1,4.2875767E-1,2.0271698E1,0E0,6.488373E0,5.128231E-1,5.1384544E-1,5.9199214E-2,2.4663017E1,9.951462E0,0E0,0E0,0E0,3.6911106E-1,0E0,0E0,0E0,0E0,0E0,0E0,0E0,0E0,0E0,0E0,0E0,0E0,0E0,0E0,0E0,0E0],"parents":[2147483647,0,0,1,1,2,2,4,4,5,5,6,6,7,7,8,8,9,9,10,10,11,11,12,12,13,13,15,15,16,16,17,17,18,18,19,19,20,20,24,24],"right_children":[2,4,6,-1,8,10,12,14,16,18,20,22,24,26,-1,28,30,32,34,36,38,-1,-1,-1,40,-1,-1,-1,-1,-1,-1,-1,-1,-1,-1,-1,-1,-1,-1,-1,-1],"split_conditions":[3.418273E-1,2.8477776E-1,6.963411E-1,-4.730066E-3,4.5878118E-1,3.510691E-1,5.755782E-1,5.6164336E-1,2.1449178E-1,3.1901097E-1,4.0245363E-1,5.561647E-1,5.4320705E-1,4.2573357E-1,1.14535846E-1,4.2085263E-1,5.9638786E-1,3.544351E-1,4.7138566E-1,6.149696E-1,3.872039E-1,3.2699514E-2,-2.5073385E-2,1.773944E-2,7.73291E-1,2.9558793E-1,7.115006E-1,5.0007153E-2,3.855537E-1,1.3868909E-1,3.9757505E-2,2.0984411E-2,1.3155417E-1,-7.7003814E-2,-1.7344713E-2,5.030784E-1,-2.0953894E-2,4.3214664E-2,2.194991E-1,1.1904172E-1,2.2767497E-2],"split_indices":[0,2,5,0,4,5,0,7,0,5,5,0,4,2,0,1,4,1,0,0,0,0,0,0,6,0,0,0,0,0,0,0,0,0,0,0,0,0,0,0,0],"split_type":[0,0,0,0,0,0,0,0,0,0,0,0,0,0,0,0,0,0,0,0,0,0,0,0,0,0,0,0,0,0,0,0,0,0,0,0,0,0,0,0,0],"sum_hessian":[1.03E2,2.5E1,7.8E1,2E0,2.3E1,6.6E1,1.2E1,1.3E1,1E1,5E0,6.1E1,4E0,8E0,1.1E1,2E0,6E0,4E0,3E0,2E0,5E0,5.6E1,3E0,1E0,1E0,7E0,4E0,7E0,1E0,5E0,2E0,2E0,1E0,2E0,1E0,1E0,4E0,1E0,4E0,5.2E1,6E0,1E0],"tree_param":{"num_deleted":"0","num_feature":"12","num_nodes":"41","size_leaf_vector":"0"}},{"base_weights":[2.5032218E0,1.4162281E1,2.2342494E0,2.9358792E0,1.7026802E0,3.5219688E0,1.8366218E0,2.206063E0,1.1761001E0,3.7712402E0,4.3689823E-1,4.6578693E-1,2.8510723E0,1.3574595E0,3.0808012E0,4.361133E-1,1.6451963E0,1.7027948E0,4.4011154E0,1.5063114E0,-1.3210647E-1,4.1998334E0,9.320971E-1,1.8595322E0,6.229453E-1,4.17807E0,1.1043087E0,-2.0390391E-1,6.4850885E-1,2.4332151E0,9.2252827E-1],"categories":[],"categories_nodes":[],"categories_segments":[],"categories_sizes":[],"default_left":[1,0,1,1,1,1,1,1,1,1,0,1,1,1,1,1,1,0,0,0,0,0,0,0,0,0,0,0,0,0,0],"id":21,"left_children":[1,-1,3,5,7,9,11,13,15,17,-1,19,21,23,25,27,29,-1,-1,-1,-1,-1,-1,-1,-1,-1,-1,-1,-1,-1,-1],"loss_changes":[2.7254645E2,0E0,3.0805786E1,1.9302002E1,1.2514511E1,1.757782E1,2.0922314E1,1.6602509E1,9.696262E0,2.247165E1,0E0,5.1759753E0,1.9379501E1,4.7420845E0,2.3579796E1,1.8994119E0,8.005856E0,0E0,0E0,0E0,0E0,0E0,0E0,0E0,0E0,0E0,0E0,0E0,0E0,0E0,0E0],"parents":[2147483647,0,0,2,2,3,3,4,4,5,5,6,6,7,7,8,8,9,9,11,11,12,12,13,13,14,14,15,15,16,16],"right_children":[2,-1,4,6,8,10,12,14,16,18,-1,20,22,24,26,28,30,-1,-1,-1,-1,-1,-1,-1,-1,-1,-1,-1,-1,-1,-1],"split_conditions":[1.7072434E-2,1.4162282E0,5.445205E-1,5.1389194E-1,5.308572E-1,8.2409596E-1,5.8909655E-1,5.571201E-1,6.2628007E-1,3.7853283E-1,4.3689825E-2,2.9484993E-1,4.0060765E-1,6.158495E-1,5.182861E-1,3.0693936E-1,6.3842773E-1,1.7027949E-1,4.4011155E-1,1.5063114E-1,-1.3210647E-2,4.1998336E-1,9.3209706E-2,1.8595323E-1,6.229453E-2,4.17807E-1,1.10430874E-1,-2.0390391E-2,6.485089E-2,2.4332152E-1,9.225283E-2],"split_indices":[10,0,4,6,7,10,6,6,1,8,0,8,5,10,8,8,0,0,0,0,0,0,0,0,0,0,0,0,0,0,0],"split_type":[0,0,0,0,0,0,0,0,0,0,0,0,0,0,0,0,0,0,0,0,0,0,0,0,0,0,0,0,0,0,0],"sum_hessian":[9.6E1,1E0,9.5E1,3.9E1,5.6E1,2.4E1,1.5E1,2.7E1,2.9E1,2.2E1,2E0,7E0,8E0,1.5E1,1.2E1,1.2E1,1.7E1,6E0,1.6E1,2E0,5E0,4E0,4E0,8E0,7E0,7E0,5E0,3E0,9E0,7E0,1E1],"tree_param":{"num_deleted":"0","num_feature":"12","num_nodes":"31","size_leaf_vector":"0"}},{"base_weights":[2.2150395E0,6.5836906E0,1.6992917E0,2.9329154E0,1.4124528E1,2.1922433E0,1.3230937E0,3.76202E0,2.9706764E-1,2.5402517E0,3.3788586E-1,8.798716E-1,1.956581E0,4.4072375E0,2.6796627E-1,3.8992882E-1,5.5672646E-2,1.2627013E0,3.5180755E0,-6.174428E-1,8.4350586E-1,1.8350245E0,6.848497E-1,2.6897094E0,8.8116884E-1,2.2413712E0,5.4922915E-1,4.0876007E0,6.4521766E-1,4.0233696E-1,9.5880353E-1,5.120101E-1,3.358719E0,2.2841708E-1,1.0158046E0],"categories":[],"categories_nodes":[],"categories_segments":[],"categories_sizes":[],"default_left":[1,1,1,1,0,1,1,1,1,1,1,1,1,0,0,0,0,1,1,0,0,0,1,1,1,0,0,0,0,0,0,0,0,0,0],"id":22,"left_children":[1,3,5,7,-1,9,11,13,15,17,19,21,23,-1,-1,-1,-1,25,27,-1,-1,-1,29,31,33,-1,-1,-1,-1,-1,-1,-1,-1,-1,-1],"loss_changes":[2.0961835E2,2.3387296E2,1.3604279E1,1.6365578E1,0E0,2.3018951E1,1.3159569E1,1.2345558E1,4.5540303E-2,3.4283524E1,3.9020495E0,4.8903847E0,1.4186623E1,0E0,0E0,0E0,0E0,9.242781E0,2.5177414E1,0E0,0E0,0E0,1.8587065E0,1.576313E1,6.4681005E-1,0E0,0E0,0E0,0E0,0E0,0E0,0E0,0E0,0E0,0E0],"parents":[2147483647,0,0,1,1,2,2,3,3,5,5,6,6,7,7,8,8,9,9,10,10,11,11,12,12,17,17,18,18,22,22,23,23,24,24],"right_children":[2,4,6,8,-1,10,12,14,16,18,20,22,24,-1,-1,-1,-1,26,28,-1,-1,-1,30,32,34,-1,-1,-1,-1,-1,-1,-1,-1,-1,-1],"split_conditions":[2.2778445E-1,2.1806237E-1,4.7806764E-1,4.186468E-1,1.4124528E0,6.1768925E-1,5.739317E-1,5.708817E-1,2.8854313E-1,4.4555044E-1,4.4942838E-1,3.4884137E-1,7.114813E-1,4.4072375E-1,2.6796628E-2,3.899288E-2,5.5672647E-3,6.0555434E-1,5.487251E-1,-6.174428E-2,8.4350586E-2,1.8350245E-1,5.09452E-1,3.945069E-1,6.036633E-1,2.2413711E-1,5.4922916E-2,4.0876007E-1,6.452177E-2,4.0233698E-2,9.588035E-2,5.1201012E-2,3.358719E-1,2.2841709E-2,1.0158046E-1],"split_indices":[9,9,11,5,0,8,1,2,0,8,4,4,0,0,0,0,0,4,0,0,0,0,9,0,5,0,0,0,0,0,0,0,0,0,0],"split_type":[0,0,0,0,0,0,0,0,0,0,0,0,0,0,0,0,0,0,0,0,0,0,0,0,0,0,0,0,0,0,0,0,0,0,0],"sum_hessian":[9.7E1,9E0,8.8E1,7E0,2E0,3.6E1,5.2E1,5E0,2E0,3E1,6E0,3.2E1,2E1,4E0,1E0,1E0,1E0,1.4E1,1.6E1,2E0,4E0,4E0,2.8E1,1.1E1,9E0,5E0,9E0,1.3E1,3E0,1.5E1,1.3E1,3E0,8E0,2E0,7E0],"tree_param":{"num_deleted":"0","num_feature":"12","num_nodes":"35","size_leaf_vector":"0"}},{"base_weights":[1.8588276E0,2.8951695E0,1.3438016E0,1.214671E0,3.60382E0,2.9111547E0,1.2521976E0,1.0645676E-1,1.8327281E0,4.06113E0,1.2367399E0,6.638479E-1,1.4935704E0,5.371103E-1,-3.596824E-1,2.1139724E0,7.263088E-2,2.545681E-1,4.270071E0,2.2925005E0,-2.3126729E-1,1.7246084E-1,1.0180165E0,2.374865E0,1.1126763E0,-4.0413857E-2,-4.9910975E-1,2.2303944E0,4.93407E0,2.7755375E0,6.6321325E-1,-6.940589E-1,3.4715796E-1,-2.319109E-1,4.8069382E-1,1.8297777E0,5.441208E-1,8.352116E-1,2.9663541E0,1.4015632E0,6.533153E-1],"categories":[],"categories_nodes":[],"categories_segments":[],"categories_sizes":[],"default_left":[1,1,1,1,1,0,1,1,1,1,1,1,1,0,1,0,0,0,1,1,1,1,1,1,1,0,0,0,0,0,0,0,0,0,0,0,0,0,0,0,0],"id":23,"left_children":[1,3,5,7,9,-1,11,13,15,17,19,21,23,-1,25,-1,-1,-1,27,29,31,33,35,37,39,-1,-1,-1,-1,-1,-1,-1,-1,-1,-1,-1,-1,-1,-1,-1,-1],"loss_changes":[4.8950012E1,3.3730896E1,6.11779E0,7.3392315E0,1.8792175E1,0E0,8.381271E0,1.1969117E0,3.3115807E0,1.3229218E1,8.279501E0,3.4791422E0,1.27988205E1,0E0,1.1337331E-1,0E0,0E0,0E0,1.2018951E1,5.2024555E-1,1.0440191E0,1.3578851E0,3.6206627E0,9.361412E0,3.5962524E0,0E0,0E0,0E0,0E0,0E0,0E0,0E0,0E0,0E0,0E0,0E0,0E0,0E0,0E0,0E0,0E0],"parents":[2147483647,0,0,1,1,2,2,3,3,4,4,6,6,7,7,8,8,9,9,10,10,11,11,12,12,14,14,18,18,19,19,20,20,21,21,22,22,23,23,24,24],"right_children":[2,4,6,8,10,-1,12,14,16,18,20,22,24,-1,26,-1,-1,-1,28,30,32,34,36,38,40,-1,-1,-1,-1,-1,-1,-1,-1,-1,-1,-1,-1,-1,-1,-1,-1],"split_conditions":[5.4639596E-1,4.007584E-1,1.4123894E-1,3.3788025E-1,6.230961E-1,2.911155E-1,4.700026E-1,5.312561E-1,5.5431396E-1,1.4121129E-1,3.042984E-1,7.0189154E-1,5.133296E-1,5.3711034E-2,4.0824074E-1,2.1139725E-1,7.263088E-3,2.545681E-2,3.8887548E-1,1.6798072E-1,5.1505035E-1,5.179099E-1,7.2900903E-1,4.615751E-1,6.3842773E-1,-4.041386E-3,-4.9910974E-2,2.2303943E-1,4.93407E-1,2.7755377E-1,6.632133E-2,-6.940589E-2,3.4715798E-2,-2.319109E-2,4.8069384E-2,1.8297778E-1,5.4412078E-2,8.352116E-2,2.9663542E-1,1.4015631E-1,6.533153E-2],"split_indices":[10,8,8,9,8,0,1,1,5,9,0,10,7,0,0,0,0,0,1,0,0,0,10,0,0,0,0,0,0,0,0,0,0,0,0,0,0,0,0,0,0],"split_type":[0,0,0,0,0,0,0,0,0,0,0,0,0,0,0,0,0,0,0,0,0,0,0,0,0,0,0,0,0,0,0,0,0,0,0,0,0,0,0,0,0],"sum_hessian":[9.8E1,3.1E1,6.7E1,1E1,2.1E1,2E0,6.5E1,4E0,6E0,1.7E1,4E0,2E1,4.5E1,2E0,2E0,5E0,1E0,1E0,1.6E1,2E0,2E0,9E0,1.1E1,1.2E1,3.3E1,1E0,1E0,5E0,1.1E1,1E0,1E0,1E0,1E0,4E0,5E0,3E0,8E0,4E0,8E0,1.9E1,1.4E1],"tree_param":{"num_deleted":"0","num_feature":"12","num_nodes":"41","size_leaf_vector":"0"}},{"base_weights":[1.969777E0,1.274996E1,1.7456803E0,3.5293121E0,1.4324918E0,2.3213212E0,5.4810295E0,3.623144E0,1.2629987E0,2.7189162E0,3.5476303E-1,1.4284554E0,6.137059E0,4.165548E0,4.555621E-1,6.658704E-1,1.5106565E0,5.9830284E-1,3.2393339E0,1.180462E0,-1.8994123E-1,2.6365328E0,1.2867422E0],"categories":[],"categories_nodes":[],"categories_segments":[],"categories_sizes":[],"default_left":[1,0,1,1,1,1,1,1,1,1,0,0,0,0,0,1,1,0,0,0,0,0,0],"id":24,"left_children":[1,-1,3,5,7,9,11,13,15,17,-1,-1,-1,-1,-1,19,21,-1,-1,-1,-1,-1,-1],"loss_changes":[2.3381766E2,0E0,5.3598663E1,2.2641632E1,2.9212326E1,7.636257E0,4.52652E0,8.410988E0,1.1712082E1,7.994339E0,0E0,0E0,0E0,0E0,0E0,1.2114845E1,1.1733429E1,0E0,0E0,0E0,0E0,0E0,0E0],"parents":[2147483647,0,0,2,2,3,3,4,4,5,5,6,6,7,7,8,8,9,9,15,15,16,16],"right_children":[2,-1,4,6,8,10,12,14,16,18,-1,-1,-1,-1,-1,20,22,-1,-1,-1,-1,-1,-1],"split_conditions":[1.7072434E-2,1.274996E0,2.4782732E-1,5.2342856E-1,2.3826227E-1,4.912619E-1,2.8154137E-2,5.2684796E-1,3.9823762E-1,3.4702244E-1,3.5476305E-2,1.4284554E-1,6.1370593E-1,4.1655478E-1,4.5556214E-2,3.5067973E-1,4.4187933E-1,5.9830286E-2,3.239334E-1,1.180462E-1,-1.8994123E-2,2.6365328E-1,1.2867422E-1],"split_indices":[10,0,3,8,10,1,0,0,3,1,0,0,0,0,0,3,3,0,0,0,0,0,0],"split_type":[0,0,0,0,0,0,0,0,0,0,0,0,0,0,0,0,0,0,0,0,0,0,0],"sum_hessian":[1.05E2,1E0,1.04E2,1.4E1,9E1,1E1,4E0,5E0,8.5E1,8E0,2E0,1E0,3E0,4E0,1E0,2.6E1,5.9E1,2E0,6E0,1.6E1,1E1,8E0,5.1E1],"tree_param":{"num_deleted":"0","num_feature":"12","num_nodes":"23","size_leaf_vector":"0"}},{"base_weights":[1.7907529E0,1.2112461E1,1.5729455E0,3.3054187E0,1.2859725E0,4.7684674E0,1.612074E0,3.0265324E0,1.1256166E0,1.461202E0,5.799133E0,2.0554264E0,1.8801117E-1,4.3278408E-1,3.386693E0,5.63596E-1,1.2703556E0,2.324794E0,3.542943E-1,2.2410107E-1,5.7915688E-2,-4.5250353E-1,7.09755E-1,2.0050306E0,9.53081E-1],"categories":[],"categories_nodes":[],"categories_segments":[],"categories_sizes":[],"default_left":[1,0,1,1,1,1,1,1,1,0,0,1,1,0,0,1,1,0,0,0,0,0,0,0,0],"id":25,"left_children":[1,-1,3,5,7,9,11,13,15,-1,-1,17,19,-1,-1,21,23,-1,-1,-1,-1,-1,-1,-1,-1],"loss_changes":[2.1475485E2,0E0,4.6958176E1,2.6997116E1,2.1713089E1,1.5387085E1,4.6644497E0,5.073456E0,6.117119E0,0E0,0E0,1.9257202E0,1.1064261E-3,0E0,0E0,3.1428971E0,1.3473221E1,0E0,0E0,0E0,0E0,0E0,0E0,0E0,0E0],"parents":[2147483647,0,0,2,2,3,3,4,4,5,5,6,6,7,7,8,8,11,11,12,12,15,15,16,16],"right_children":[2,-1,4,6,8,10,12,14,16,-1,-1,18,20,-1,-1,22,24,-1,-1,-1,-1,-1,-1,-1,-1],"split_conditions":[1.7072434E-2,1.2112461E0,2.4782732E-1,5.088648E-1,2.3169369E-1,4.4462314E-1,5.123727E-1,3.0626392E-1,4.3036804E-1,1.461202E-1,5.799133E-1,5.2916634E-1,2.4460337E-1,4.3278407E-2,3.386693E-1,3.053704E-1,5.086893E-1,2.3247941E-1,3.542943E-2,2.2410108E-2,5.7915687E-3,-4.5250352E-2,7.0975505E-2,2.0050307E-1,9.53081E-2],"split_indices":[10,0,3,10,10,2,2,2,5,0,0,0,0,0,0,10,5,0,0,0,0,0,0,0,0],"split_type":[0,0,0,0,0,0,0,0,0,0,0,0,0,0,0,0,0,0,0,0,0,0,0,0,0],"sum_hessian":[1.03E2,1E0,1.02E2,1.3E1,8.9E1,6E0,7E0,6E0,8.3E1,2E0,4E0,5E0,2E0,1E0,5E0,1.8E1,6.5E1,4E0,1E0,1E0,1E0,2E0,1.6E1,1.8E1,4.7E1],"tree_param":{"num_deleted":"0","num_feature":"12","num_nodes":"25","size_leaf_vector":"0"}},{"base_weights":[1.6074383E0,1.1506838E1,1.3996108E0,2.8591518E0,1.0983256E0,4.4614487E0,1.5795854E0,2.5706422E0,9.772009E-1,4.9230447E0,8.459368E-1,2.8112817E-1,2.0313659E0,4.1114473E-1,2.920313E0,1.1079685E-1,1.109872E0,3.3815733E-1,5.5020332E-2,2.6697516E0,7.2554207E-1,-1.0572806E-1,1.2462854E0,1.2145102E0,-2.0321164E-2],"categories":[],"categories_nodes":[],"categories_segments":[],"categories_sizes":[],"default_left":[1,0,1,1,1,1,1,1,1,0,0,1,1,0,0,1,1,0,0,0,0,0,0,0,0],"id":26,"left_children":[1,-1,3,5,7,9,11,13,15,-1,-1,17,19,-1,-1,21,23,-1,-1,-1,-1,-1,-1,-1,-1],"loss_changes":[1.9786118E2,0E0,4.215274E1,2.7806946E1,1.3003021E1,7.5177307E0,5.8817177E0,3.3300056E0,9.302658E0,0E0,0E0,3.297344E-2,4.7319374E0,0E0,0E0,3.0821064E0,8.421234E0,0E0,0E0,0E0,0E0,0E0,0E0,0E0,0E0],"parents":[2147483647,0,0,2,2,3,3,4,4,5,5,6,6,7,7,8,8,11,11,12,12,15,15,16,16],"right_children":[2,-1,4,6,8,10,12,14,16,-1,-1,18,20,-1,-1,22,24,-1,-1,-1,-1,-1,-1,-1,-1],"split_conditions":[5.7052735E-2,1.1506838E0,3.5293055E-1,4.5878118E-1,2.3169369E-1,5.3539985E-1,4.30247E-1,4.8114967E-1,2.816587E-1,4.9230447E-1,8.4593676E-2,4.0033492E-1,5.5234814E-1,4.1114476E-2,2.920313E-1,6.717697E-1,7.627514E-1,3.3815734E-2,5.5020335E-3,2.6697516E-1,7.255421E-2,-1.0572806E-2,1.24628544E-1,1.2145102E-1,-2.0321165E-3],"split_indices":[10,0,11,4,10,1,1,6,8,0,0,1,1,0,0,1,4,0,0,0,0,0,0,0,0],"split_type":[0,0,0,0,0,0,0,0,0,0,0,0,0,0,0,0,0,0,0,0,0,0,0,0,0],"sum_hessian":[1.03E2,1E0,1.02E2,1.6E1,8.6E1,6E0,1E1,5E0,8.1E1,5E0,1E0,3E0,7E0,1E0,4E0,1.1E1,7E1,2E0,1E0,4E0,3E0,1E1,1E0,6.4E1,6E0],"tree_param":{"num_deleted":"0","num_feature":"12","num_nodes":"25","size_leaf_vector":"0"}},{"base_weights":[1.3913813E0,3.1310728E0,1.1411827E0,4.981485E0,1.0977091E0,2.4161043E0,1.0028832E0,1.6381292E0,2.828617E-1,7.874835E-1,2.827731E0,1.3577514E0,6.494504E-1,4.091854E-1,-4.8054695E-2,4.918123E-1,1.8576423E0,1.6938886E-1,1.0999916E0,1.153182E0,8.635495E-2,2.112274E0,-7.242918E-3,-6.9880176E-1,3.4325063E-1,1.6120304E0,4.4140452E-1],"categories":[],"categories_nodes":[],"categories_segments":[],"categories_sizes":[],"default_left":[1,1,1,0,1,1,1,0,1,0,0,1,1,0,0,1,1,1,1,0,0,0,0,0,0,0,0],"id":27,"left_children":[1,3,5,-1,7,9,11,-1,13,-1,-1,15,17,-1,-1,19,21,23,25,-1,-1,-1,-1,-1,-1,-1,-1],"loss_changes":[3.995372E1,3.968251E1,1.3269508E1,0E0,2.619155E0,3.1362724E0,9.402817E0,0E0,1.8687364E-1,0E0,0E0,1.640139E1,9.114035E0,0E0,0E0,4.1909323E0,1.1886772E1,3.5606577E0,6.707329E0,0E0,0E0,0E0,0E0,0E0,0E0,0E0,0E0],"parents":[2147483647,0,0,1,1,2,2,4,4,5,5,6,6,8,8,11,11,12,12,15,15,16,16,17,17,18,18],"right_children":[2,4,6,-1,8,10,12,-1,14,-1,-1,16,18,-1,-1,20,22,24,26,-1,-1,-1,-1,-1,-1,-1,-1],"split_conditions":[3.121946E-1,3.0737716E-1,2.3169369E-1,4.981485E-1,4.0180573E-1,1.9038175E-1,6.1636806E-1,1.6381292E-1,4.1816446E-1,7.874835E-2,2.827731E-1,4.101522E-1,6.9816333E-1,4.091854E-2,-4.8054694E-3,2.6186186E-1,6.073723E-1,2.3981653E-1,7.627514E-1,1.153182E-1,8.635495E-3,2.112274E-1,-7.2429184E-4,-6.988018E-2,3.4325063E-2,1.6120304E-1,4.4140454E-2],"split_indices":[4,11,10,0,9,9,4,0,3,0,0,0,4,0,0,3,5,8,4,0,0,0,0,0,0,0,0],"split_type":[0,0,0,0,0,0,0,0,0,0,0,0,0,0,0,0,0,0,0,0,0,0,0,0,0,0,0],"sum_hessian":[9.9E1,1.1E1,8.8E1,5E0,6E0,7E0,8.1E1,3E0,3E0,2E0,5E0,3.9E1,4.2E1,2E0,1E0,1.5E1,2.4E1,2.1E1,2.1E1,5E0,1E1,2.1E1,3E0,3E0,1.8E1,1.1E1,1E1],"tree_param":{"num_deleted":"0","num_feature":"12","num_nodes":"27","size_leaf_vector":"0"}},{"base_weights":[1.2160206E0,1.079011E1,1.0257009E0,2.2145813E0,7.6037025E-1,2.811763E0,-1.9880105E-2,4.8931494E-1,1.4740903E0,1.566804E0,4.010744E0,4.084711E-1,-4.416046E-1,1.5530137E0,3.766673E-1,2.3333993E0,6.9362676E-1,1.7227902E0,1.594572E-1,1.7496727E0,5.2691298E0,4.3226337E-1,1.690711E0,1.7282712E-1,8.181652E-1,2.5448833E0,1.09280586E-1,3.1193924E-1,1.5698607E0],"categories":[],"categories_nodes":[],"categories_segments":[],"categories_sizes":[],"default_left":[1,0,1,1,1,1,1,1,1,1,1,0,0,1,1,1,1,0,0,0,0,0,0,0,0,0,0,0,0],"id":28,"left_children":[1,-1,3,5,7,9,11,13,15,17,19,-1,-1,21,23,25,27,-1,-1,-1,-1,-1,-1,-1,-1,-1,-1,-1,-1],"loss_changes":[1.8572336E2,0E0,3.2068863E1,2.5409103E1,1.6496445E1,1.6106194E1,1.0836138E0,7.3233604E0,1.4477314E1,1.7010288E0,1.0697845E1,0E0,0E0,1.9511318E-1,5.3482933E0,4.8959084E0,4.192564E0,0E0,0E0,0E0,0E0,0E0,0E0,0E0,0E0,0E0,0E0,0E0,0E0],"parents":[2147483647,0,0,2,2,3,3,4,4,5,5,6,6,7,7,8,8,9,9,10,10,13,13,14,14,15,15,16,16],"right_children":[2,-1,4,6,8,10,12,14,16,18,20,-1,-1,22,24,26,28,-1,-1,-1,-1,-1,-1,-1,-1,-1,-1,-1,-1],"split_conditions":[1.7072434E-2,1.079011E0,2.6186186E-1,4.265992E-1,6.713499E-1,2.5252604E-1,3.6955398E-1,2.959942E-1,6.3842773E-1,2.3069152E-1,4.7589564E-1,4.084711E-2,-4.4160463E-2,3.2279795E-1,6.968187E-1,9.145872E-1,8.668159E-1,1.7227903E-1,1.5945721E-2,1.7496727E-1,5.26913E-1,4.322634E-2,1.6907111E-1,1.7282713E-2,8.181652E-2,2.5448832E-1,1.0928059E-2,3.1193925E-2,1.5698607E-1],"split_indices":[10,0,9,6,2,0,2,7,0,0,2,0,0,0,10,8,5,0,0,0,0,0,0,0,0,0,0,0,0],"split_type":[0,0,0,0,0,0,0,0,0,0,0,0,0,0,0,0,0,0,0,0,0,0,0,0,0,0,0,0,0],"sum_hessian":[1.07E2,1E0,1.06E2,1.8E1,8.8E1,1.4E1,4E0,6.5E1,2.3E1,8E0,6E0,2E0,2E0,5E0,6E1,1E1,1.3E1,7E0,1E0,3E0,3E0,1E0,4E0,4.2E1,1.8E1,9E0,1E0,1E1,3E0],"tree_param":{"num_deleted":"0","num_feature":"12","num_nodes":"29","size_leaf_vector":"0"}},{"base_weights":[1.130959E0,3.4417074E0,9.697177E-1,6.507556E-1,4.6744943E0,2.6732903E0,8.2150245E-1,3.2610784E0,8.025468E-1,5.0596446E-1,1.3225051E0,1.503211E0,1.6150214E-1,2.265789E0,8.743657E-1,1.9629016E0,5.631399E-1,-1.521827E-1,5.882032E-1,3.7042618E-1,2.6933265E0,3.0892086E-1,1.1930379E0],"categories":[],"categories_nodes":[],"categories_segments":[],"categories_sizes":[],"default_left":[1,1,1,0,0,1,1,0,0,1,1,1,1,1,1,0,0,0,0,0,0,0,0],"id":29,"left_children":[1,3,5,-1,-1,7,9,-1,-1,11,13,15,17,19,21,-1,-1,-1,-1,-1,-1,-1,-1],"loss_changes":[3.3176155E1,1.7601944E1,2.1285957E1,0E0,0E0,5.080036E0,1.308429E1,0E0,0E0,1.865049E1,1.19687195E1,4.9445972E0,5.7111993E0,7.105709E0,3.9560432E0,0E0,0E0,0E0,0E0,0E0,0E0,0E0,0E0],"parents":[2147483647,0,0,1,1,2,2,5,5,6,6,9,9,10,10,11,11,12,12,13,13,14,14],"right_children":[2,4,6,-1,-1,8,10,-1,-1,12,14,16,18,20,22,-1,-1,-1,-1,-1,-1,-1,-1],"split_conditions":[2.0297801E-1,1.6102563E-1,2.3826227E-1,6.507556E-2,4.6744943E-1,5.2684796E-1,5.6326485E-1,3.2610783E-1,8.025468E-2,3.2832217E-1,5.8304435E-1,4.3928045E-1,6.332481E-1,2.8583717E-1,5.387947E-1,1.9629017E-1,5.631399E-2,-1.521827E-2,5.882032E-2,3.7042618E-2,2.6933265E-1,3.0892087E-2,1.19303785E-1],"split_indices":[3,3,10,0,0,0,1,0,0,6,4,11,4,0,6,0,0,0,0,0,0,0,0],"split_type":[0,0,0,0,0,0,0,0,0,0,0,0,0,0,0,0,0,0,0,0,0,0,0],"sum_hessian":[9.7E1,5E0,9.2E1,2E0,3E0,6E0,8.6E1,4E0,2E0,5.4E1,3.2E1,1.3E1,4.1E1,9E0,2.3E1,8E0,5E0,2.4E1,1.7E1,2E0,7E0,9E0,1.4E1],"tree_param":{"num_deleted":"0","num_feature":"12","num_nodes":"23","size_leaf_vector":"0"}},{"base_weights":[1.0501875E0,2.6618576E0,8.660839E-1,4.111707E0,7.683651E-1,2.3098307E0,7.353886E-1,9.536184E-1,-7.895088E-2,8.694203E-1,3.0001926E0,1.1932331E0,4.606353E-1,2.7847052E-1,1.0527878E0,8.258826E-1,2.1627033E0,3.6130387E-1,1.5008867E0,9.847615E-1,-3.3386135E-1,-9.847641E-2,2.4576602E0,3.670832E-2,6.961811E-1,3.0788994E-1,2.193588E0],"categories":[],"categories_nodes":[],"categories_segments":[],"categories_sizes":[],"default_left":[1,1,1,0,1,1,1,1,0,0,0,1,1,0,0,1,1,1,1,0,0,0,0,0,0,0,0],"id":30,"left_children":[1,3,5,-1,7,9,11,13,-1,-1,-1,15,17,-1,-1,19,21,23,25,-1,-1,-1,-1,-1,-1,-1,-1],"loss_changes":[3.0926598E1,2.703878E1,1.7547852E1,0E0,1.0170982E0,5.3468094E0,1.1400814E1,4.1599274E-2,0E0,0E0,0E0,1.06786E1,5.7608347E0,0E0,0E0,5.3037624E0,6.2445793E0,6.170325E0,3.4565687E0,0E0,0E0,0E0,0E0,0E0,0E0,0E0,0E0],"parents":[2147483647,0,0,1,1,2,2,4,4,5,5,6,6,7,7,11,11,12,12,15,15,16,16,17,17,18,18],"right_children":[2,4,6,-1,8,10,12,14,-1,-1,-1,16,18,-1,-1,20,22,24,26,-1,-1,-1,-1,-1,-1,-1,-1],"split_conditions":[2.8557837E-1,3.0737716E-1,2.3826227E-1,4.1117072E-1,5.616967E-1,4.291575E-1,5.682529E-1,2.3277107E-1,-7.895089E-3,8.694203E-2,3.0001926E-1,5.618967E-1,7.7789426E-1,2.7847052E-2,1.0527878E-1,5.270975E-1,3.3284658E-1,6.968187E-1,7.0597184E-1,9.847615E-2,-3.3386137E-2,-9.847641E-3,2.4576603E-1,3.6708321E-3,6.961811E-2,3.0788993E-2,2.193588E-1],"split_indices":[4,11,10,0,2,2,4,1,0,0,0,1,9,0,0,1,5,4,1,0,0,0,0,0,0,0,0],"split_type":[0,0,0,0,0,0,0,0,0,0,0,0,0,0,0,0,0,0,0,0,0,0,0,0,0,0,0],"sum_hessian":[1.11E2,1E1,1.01E2,5E0,5E0,7E0,9.4E1,4E0,1E0,3E0,4E0,3.4E1,6E1,1E0,3E0,2.6E1,8E0,5.6E1,4E0,2.3E1,3E0,1E0,7E0,2.9E1,2.7E1,2E0,2E0],"tree_param":{"num_deleted":"0","num_feature":"12","num_nodes":"27","size_leaf_vector":"0"}},{"base_weights":[1.0986849E0,9.937542E0,9.1278E-1,2.1754045E0,7.342881E-1,1.2841194E0,4.4212203E0,1.8228464E0,6.4880997E-1,1.5516005E0,1.4279683E-1,2.4719143E-1,2.0885391E0,-3.2909632E-1,7.1404284E-1,8.4510565E-2,-7.7087337E-1,1.1071453E0,4.6880522E-1],"categories":[],"categories_nodes":[],"categories_segments":[],"categories_sizes":[],"default_left":[1,0,1,1,1,1,0,1,1,0,0,0,0,1,1,0,0,0,0],"id":31,"left_children":[1,-1,3,5,7,9,-1,11,13,-1,-1,-1,-1,15,17,-1,-1,-1,-1],"loss_changes":[1.5853429E2,0E0,2.1164833E1,1.8342567E1,7.1916275E0,2.8312569E0,0E0,1.995573E0,5.6572723E0,0E0,0E0,0E0,0E0,1.1614792E0,7.193245E0,0E0,0E0,0E0,0E0],"parents":[2147483647,0,0,2,2,3,3,4,4,5,5,7,7,8,8,13,13,14,14],"right_children":[2,-1,4,6,8,10,-1,12,14,-1,-1,-1,-1,16,18,-1,-1,-1,-1],"split_conditions":[1.7072434E-2,9.937542E-1,2.94825E-1,2.574185E-1,2.3792666E-1,6.0726583E-1,4.4212204E-1,3.0626392E-1,3.516555E-1,1.5516005E-1,1.4279683E-2,2.4719143E-2,2.0885392E-1,3.2396305E-1,5.682529E-1,8.451057E-3,-7.7087335E-2,1.1071453E-1,4.6880525E-2],"split_indices":[10,0,5,5,10,7,0,2,5,0,0,0,0,5,4,0,0,0,0],"split_type":[0,0,0,0,0,0,0,0,0,0,0,0,0,0,0,0,0,0,0],"sum_hessian":[1.01E2,1E0,1E2,1.1E1,8.9E1,9E0,2E0,5E0,8.4E1,7E0,2E0,1E0,4E0,5E0,7.9E1,3E0,2E0,2.9E1,5E1],"tree_param":{"num_deleted":"0","num_feature":"12","num_nodes":"19","size_leaf_vector":"0"}},{"base_weights":[9.993682E-1,9.440664E0,8.2405484E-1,1.8697345E0,5.9292203E-1,3.2500072E0,9.0876436E-1,1.9603786E0,5.1898605E-1,3.6293905E0,4.868536E-1,1.4461882E0,-1.3286667E-1,5.751133E-2,2.5754974E0,5.928261E-1,-2.3813784E-1,1.630751E0,7.712412E-2,-4.1296244E-1,4.937582E-1,3.9777008E-1,9.9074656E-1,-3.3332953E-1,3.1624794E-2],"categories":[],"categories_nodes":[],"categories_segments":[],"categories_sizes":[],"default_left":[1,0,1,1,1,1,1,1,1,0,0,1,1,0,0,1,1,0,0,0,0,0,0,0,0],"id":32,"left_children":[1,-1,3,5,7,9,11,13,15,-1,-1,17,19,-1,-1,21,23,-1,-1,-1,-1,-1,-1,-1,-1],"loss_changes":[1.4464717E2,0E0,2.3543861E1,2.0921722E1,7.5764523E0,5.5710754E0,6.9097185E0,4.5338364E0,4.7254734E0,0E0,0E0,1.8956585E0,1.0814785E0,0E0,0E0,5.4271717E0,2.1597475E-1,0E0,0E0,0E0,0E0,0E0,0E0,0E0,0E0],"parents":[2147483647,0,0,2,2,3,3,4,4,5,5,6,6,7,7,8,8,11,11,12,12,15,15,16,16],"right_children":[2,-1,4,6,8,10,12,14,16,-1,-1,18,20,-1,-1,22,24,-1,-1,-1,-1,-1,-1,-1,-1],"split_conditions":[1.7072434E-2,9.4406646E-1,3.6538047E-1,3.172933E-1,1.9270366E-1,5.1910454E-1,5.8382225E-1,1.19618505E-1,7.803035E-1,3.6293906E-1,4.868536E-2,8.5306495E-1,8.6206585E-1,5.751133E-3,2.5754973E-1,5.6326485E-1,7.3343194E-1,1.630751E-1,7.712412E-3,-4.1296244E-2,4.937582E-2,3.9777007E-2,9.9074654E-2,-3.3332955E-2,3.1624795E-3],"split_indices":[10,0,11,4,0,1,10,0,4,0,0,4,4,0,0,1,1,0,0,0,0,0,0,0,0],"split_type":[0,0,0,0,0,0,0,0,0,0,0,0,0,0,0,0,0,0,0,0,0,0,0,0,0],"sum_hessian":[1.02E2,1E0,1.01E2,1.7E1,8.4E1,6E0,1.1E1,3E0,8.1E1,5E0,1E0,7E0,4E0,1E0,2E0,7.4E1,7E0,6E0,1E0,3E0,1E0,5.1E1,2.3E1,5E0,2E0],"tree_param":{"num_deleted":"0","num_feature":"12","num_nodes":"25","size_leaf_vector":"0"}},{"base_weights":[9.185142E-1,8.968632E0,7.532836E-1,1.93565E0,5.760963E-1,3.1319861E0,4.627924E-1,1.0423135E0,3.631248E-1,1.623208E0,3.8577676E0,6.861547E-1,-6.374232E-2,3.0455333E-1,1.3757497E0,9.1196173E-1,1.4520587E-1,1.8930101E-1,7.630429E-1,5.4636E-2,-1.5024948E-1,-1.02354765E-1,1.2881237E0,9.424653E-1,2.1574552E0,-5.9403706E-1,1.7144642E0,-1.2691315E-1,4.8815858E-1],"categories":[],"categories_nodes":[],"categories_segments":[],"categories_sizes":[],"default_left":[1,0,1,1,1,1,1,1,1,0,0,1,1,1,1,1,1,0,0,0,0,0,0,0,0,0,0,0,0],"id":33,"left_children":[1,-1,3,5,7,9,11,13,15,-1,-1,17,19,21,23,25,27,-1,-1,-1,-1,-1,-1,-1,-1,-1,-1,-1,-1],"loss_changes":[1.3157715E2,0E0,2.0463406E1,2.145697E1,8.65699E0,1.4033432E0,8.6699307E-1,6.468899E0,7.5221024E0,0E0,0E0,4.6566248E-2,3.8930748E-2,4.134073E0,4.401985E0,2.2772675E1,4.4481792E0,0E0,0E0,0E0,0E0,0E0,0E0,0E0,0E0,0E0,0E0,0E0,0E0],"parents":[2147483647,0,0,2,2,3,3,4,4,5,5,6,6,7,7,8,8,11,11,12,12,13,13,14,14,15,15,16,16],"right_children":[2,-1,4,6,8,10,12,14,16,-1,-1,18,20,22,24,26,28,-1,-1,-1,-1,-1,-1,-1,-1,-1,-1,-1,-1],"split_conditions":[1.7072434E-2,8.9686316E-1,2.8993058E-1,3.6538047E-1,4.4567287E-1,5.008794E-1,2.4680805E-1,4.488562E-1,5.07958E-1,1.6232081E-1,3.8577676E-1,2.1143273E-1,3.214578E-1,5.2607137E-1,4.213739E-1,4.3199384E-1,6.366302E-1,1.8930102E-2,7.6304294E-2,5.4636E-3,-1.5024948E-2,-1.0235476E-2,1.2881237E-1,9.424653E-2,2.1574552E-1,-5.9403706E-2,1.7144643E-1,-1.2691314E-2,4.8815858E-2],"split_indices":[10,0,4,11,7,2,4,1,4,0,0,1,0,9,9,0,1,0,0,0,0,0,0,0,0,0,0,0,0],"split_type":[0,0,0,0,0,0,0,0,0,0,0,0,0,0,0,0,0,0,0,0,0,0,0,0,0,0,0,0,0],"sum_hessian":[1.03E2,1E0,1.02E2,1.2E1,9E1,6E0,6E0,2.7E1,6.3E1,3E0,3E0,4E0,2E0,9E0,1.8E1,1.7E1,4.6E1,1E0,3E0,1E0,1E0,7E0,2E0,1.3E1,5E0,6E0,1.1E1,2.6E1,2E1],"tree_param":{"num_deleted":"0","num_feature":"12","num_nodes":"29","size_leaf_vector":"0"}},{"base_weights":[8.7479174E-1,8.520201E0,7.251102E-1,2.4189084E0,6.194024E-1,5.3294134E-1,4.1272283E0,1.9493743E0,5.170395E-1,8.552297E-1,-2.1696186E-1,1.0037445E0,2.8756325E0,1.3100736E0,3.8966906E-1,1.6781998E-1,1.1707706E0,1.7880168E0,1.8776111E-1,-1.1434692E-1,4.9930602E-1],"categories":[],"categories_nodes":[],"categories_segments":[],"categories_sizes":[],"default_left":[1,0,1,1,1,1,0,1,1,0,0,1,0,1,1,0,0,0,0,0,0],"id":34,"left_children":[1,-1,3,5,7,9,-1,11,13,-1,-1,15,-1,17,19,-1,-1,-1,-1,-1,-1],"loss_changes":[1.1855899E2,0E0,1.7838863E1,1.7131443E1,1.30145035E1,1.1522924E0,0E0,3.2448807E0,9.287384E0,0E0,0E0,5.0162745E-1,0E0,6.637501E0,4.7540903E0,0E0,0E0,0E0,0E0,0E0,0E0],"parents":[2147483647,0,0,2,2,3,3,4,4,5,5,7,7,8,8,11,11,13,13,14,14],"right_children":[2,-1,4,6,8,10,-1,12,14,-1,-1,16,-1,18,20,-1,-1,-1,-1,-1,-1],"split_conditions":[1.7072434E-2,8.520201E-1,2.0297801E-1,3.0513895E-1,2.3826227E-1,5.5048734E-1,4.1272283E-1,6.233368E-1,3.7711263E-1,8.552297E-2,-2.1696186E-2,3.0626392E-1,2.8756326E-1,6.105057E-1,3.3134374E-1,1.6781999E-2,1.1707707E-1,1.7880169E-1,1.8776111E-2,-1.1434692E-2,4.9930602E-2],"split_indices":[10,0,3,6,10,2,0,4,7,0,0,2,0,10,2,0,0,0,0,0,0],"split_type":[0,0,0,0,0,0,0,0,0,0,0,0,0,0,0,0,0,0,0,0,0],"sum_hessian":[1.08E2,1E0,1.07E2,5E0,1.02E2,3E0,2E0,6E0,9.6E1,2E0,1E0,4E0,2E0,1.2E1,8.4E1,1E0,3E0,8E0,4E0,1.5E1,6.9E1],"tree_param":{"num_deleted":"0","num_feature":"12","num_nodes":"21","size_leaf_vector":"0"}},{"base_weights":[7.869539E-1,8.094191E0,6.402737E-1,1.4685084E0,4.2811838E-1,2.520693E0,7.623664E-1,2.618605E-1,9.553634E-1,1.5014368E0,3.7189744E0,-1.1562233E-1,1.1251242E0,4.0569323E-1,-5.8417207E-1,2.49326E0,5.3730756E-1,1.6591702E0,3.5638523E-1,1.716671E-1,-2.3036146E-1,1.4522558E0,-1.2226836E-1,3.2850412E-1,1.6855959E0,8.737612E-2,-6.6849697E-1,7.589313E-1,-3.7270236E-1],"categories":[],"categories_nodes":[],"categories_segments":[],"categories_sizes":[],"default_left":[1,0,1,1,1,1,1,1,1,1,0,1,1,1,1,0,1,0,0,0,0,0,0,0,0,0,0,0,0],"id":35,"left_children":[1,-1,3,5,7,9,11,13,15,17,-1,19,21,23,25,-1,27,-1,-1,-1,-1,-1,-1,-1,-1,-1,-1,-1,-1],"loss_changes":[1.084312E2,0E0,1.7821312E1,1.3681137E1,7.2008114E0,4.1870384E0,4.5890512E0,8.268347E0,1.1518885E1,4.9237156E-1,0E0,2.0436218E-1,4.2581806E0,5.0775642E0,6.2469316E-1,0E0,3.7114115E0,0E0,0E0,0E0,0E0,0E0,0E0,0E0,0E0,0E0,0E0,0E0,0E0],"parents":[2147483647,0,0,2,2,3,3,4,4,5,5,6,6,7,7,8,8,9,9,11,11,12,12,13,13,14,14,16,16],"right_children":[2,-1,4,6,8,10,12,14,16,18,-1,20,22,24,26,-1,28,-1,-1,-1,-1,-1,-1,-1,-1,-1,-1,-1,-1],"split_conditions":[1.7072434E-2,8.094191E-1,3.5293055E-1,3.172933E-1,6.645503E-1,5.259413E-1,4.30247E-1,5.718996E-1,5.276191E-1,5.1910454E-1,3.7189743E-1,3.7450024E-1,3.3254537E-1,7.741913E-1,3.6539233E-1,2.4932599E-1,7.788663E-1,1.6591702E-1,3.5638522E-2,1.716671E-2,-2.3036147E-2,1.4522558E-1,-1.2226836E-2,3.285041E-2,1.685596E-1,8.737612E-3,-6.68497E-2,7.589313E-2,-3.7270237E-2],"split_indices":[10,0,11,4,2,2,1,2,4,1,0,1,9,6,6,0,4,0,0,0,0,0,0,0,0,0,0,0,0],"split_type":[0,0,0,0,0,0,0,0,0,0,0,0,0,0,0,0,0,0,0,0,0,0,0,0,0,0,0,0,0],"sum_hessian":[1.05E2,1E0,1.04E2,2E1,8.4E1,7E0,1.3E1,6.5E1,1.9E1,5E0,2E0,4E0,9E0,5.6E1,9E0,3E0,1.6E1,4E0,1E0,1E0,3E0,7E0,2E0,5.4E1,2E0,1E0,8E0,1.3E1,3E0],"tree_param":{"num_deleted":"0","num_feature":"12","num_nodes":"29","size_leaf_vector":"0"}},{"base_weights":[6.079531E-1,7.6894817E0,4.7118446E-1,1.4906433E0,3.7472135E-1,3.6605287E-1,1.9919297E0,8.650501E-1,1.9974443E-1,8.001086E-1,2.387813E0,6.217538E-1,2.047741E0,-4.9946854E-1,3.149998E-1,8.401662E-1,-6.257465E-1,5.131812E-1,-9.4335985E-1,8.019803E-1,1.5286602E-1],"categories":[],"categories_nodes":[],"categories_segments":[],"categories_sizes":[],"default_left":[1,0,1,1,1,0,1,1,1,0,0,1,0,1,1,0,0,0,0,0,0],"id":36,"left_children":[1,-1,3,5,7,-1,9,11,13,-1,-1,15,-1,17,19,-1,-1,-1,-1,-1,-1],"loss_changes":[1.019467E2,0E0,1.0062164E1,4.3445244E0,8.406833E0,0E0,9.204235E-1,6.2081585E0,6.2014356E0,0E0,0E0,6.792529E0,0E0,5.428685E0,5.0095434E0,0E0,0E0,0E0,0E0,0E0,0E0],"parents":[2147483647,0,0,2,2,3,3,4,4,6,6,7,7,8,8,11,11,13,13,14,14],"right_children":[2,-1,4,6,8,-1,10,12,14,-1,-1,16,-1,18,20,-1,-1,-1,-1,-1,-1],"split_conditions":[1.7072434E-2,7.689482E-1,2.3826227E-1,4.5813495E-1,4.1823113E-1,3.6605287E-2,4.2821503E-1,7.073957E-1,3.1151384E-1,8.001086E-2,2.3878132E-1,6.2844324E-1,2.047741E-1,1.8576804E-1,4.4567287E-1,8.401662E-2,-6.257465E-2,5.131812E-2,-9.433599E-2,8.0198035E-2,1.5286602E-2],"split_indices":[10,0,10,8,4,0,4,8,2,0,0,2,0,2,7,0,0,0,0,0,0],"split_type":[0,0,0,0,0,0,0,0,0,0,0,0,0,0,0,0,0,0,0,0,0],"sum_hessian":[1.08E2,1E0,1.07E2,8E0,9.9E1,3E0,5E0,2.5E1,7.4E1,2E0,3E0,2.2E1,3E0,1E1,6.4E1,1.9E1,3E0,3E0,7E0,1.5E1,4.9E1],"tree_param":{"num_deleted":"0","num_feature":"12","num_nodes":"21","size_leaf_vector":"0"}},{"base_weights":[5.940495E-1,7.305008E0,4.6182343E-1,1.9400616E0,3.694348E-1,7.460121E-1,3.9551544E0,1.5507575E0,2.7850118E-1,1.091928E0,-3.1882572E-1,1.999862E0,2.853311E-1,3.7575027E-1,-1.898034E-1,-8.495903E-2,1.5125433E0,8.820731E-1,2.45103E0,6.498844E-1,1.18777685E-1,-3.8498178E-1,8.4935635E-1],"categories":[],"categories_nodes":[],"categories_segments":[],"categories_sizes":[],"default_left":[1,0,1,1,1,1,0,1,1,1,0,1,0,1,1,0,0,0,0,0,0,0,0],"id":37,"left_children":[1,-1,3,5,7,9,-1,11,13,15,-1,17,-1,19,21,-1,-1,-1,-1,-1,-1,-1,-1],"loss_changes":[9.157431E1,0E0,1.3759947E1,1.1486132E1,1.0417729E1,2.189856E0,0E0,3.4075375E0,4.397826E0,2.108571E0,0E0,3.5956573E-1,0E0,5.487962E0,3.774953E0,0E0,0E0,0E0,0E0,0E0,0E0,0E0,0E0],"parents":[2147483647,0,0,2,2,3,3,4,4,5,5,7,7,8,8,9,9,11,11,13,13,14,14],"right_children":[2,-1,4,6,8,10,-1,12,14,16,-1,18,-1,20,22,-1,-1,-1,-1,-1,-1,-1,-1],"split_conditions":[5.7052735E-2,7.305008E-1,2.042078E-1,1.8148927E-1,2.3826227E-1,4.9650666E-1,3.9551544E-1,5.2684796E-1,6.989267E-1,1.944155E-1,-3.1882573E-2,5.412458E-1,2.853311E-2,5.0666803E-1,8.7488693E-1,-8.495904E-3,1.5125434E-1,8.820731E-2,2.45103E-1,6.498844E-2,1.1877769E-2,-3.8498178E-2,8.4935635E-2],"split_indices":[10,0,3,3,10,1,0,0,5,1,0,1,0,6,5,0,0,0,0,0,0,0,0],"split_type":[0,0,0,0,0,0,0,0,0,0,0,0,0,0,0,0,0,0,0,0,0,0,0],"sum_hessian":[1.06E2,1E0,1.05E2,5E0,1E2,4E0,1E0,6E0,9.4E1,3E0,1E0,4E0,2E0,7.8E1,1.6E1,1E0,2E0,2E0,2E0,3.7E1,4.1E1,1.4E1,2E0],"tree_param":{"num_deleted":"0","num_feature":"12","num_nodes":"23","size_leaf_vector":"0"}},{"base_weights":[4.7188097E-1,6.9397583E0,3.4296137E-1,-2.2175436E-1,4.4815692E-1,-6.185394E-1,1.2224319E0,8.2035416E-1,1.3517636E-1,-2.4208259E-2,-8.53851E-1,6.264174E-1,1.6451391E0,2.8278464E-1,-4.004508E-1,-1.2853312E-1,1.965456E-1,-1.12734795E-1,-9.236712E-1,8.651782E-1,-4.1811398E-1,5.413529E-1,1.9783831E0,5.1539384E-2,6.4934105E-1,-5.560444E-1,5.777426E-1],"categories":[],"categories_nodes":[],"categories_segments":[],"categories_sizes":[],"default_left":[1,0,1,1,1,1,0,1,1,1,1,1,1,1,1,0,0,0,0,0,0,0,0,0,0,0,0],"id":38,"left_children":[1,-1,3,5,7,9,-1,11,13,15,17,19,21,23,25,-1,-1,-1,-1,-1,-1,-1,-1,-1,-1,-1,-1],"loss_changes":[8.517271E1,0E0,6.27756E0,1.0497658E1,1.0140272E1,1.9372725E0,0E0,5.3676987E0,3.9873283E0,1.4041321E-1,4.1331816E-1,8.841112E0,1.5038071E0,3.2723467E0,1.9954573E0,0E0,0E0,0E0,0E0,0E0,0E0,0E0,0E0,0E0,0E0,0E0,0E0],"parents":[2147483647,0,0,2,2,3,3,4,4,5,5,7,7,8,8,9,9,10,10,11,11,12,12,13,13,14,14],"right_children":[2,-1,4,6,8,10,-1,12,14,16,18,20,22,24,26,-1,-1,-1,-1,-1,-1,-1,-1,-1,-1,-1,-1],"split_conditions":[1.7072434E-2,6.9397587E-1,2.813038E-1,6.9525915E-1,5.682529E-1,3.5613132E-1,1.2224319E-1,5.618967E-1,7.474562E-1,3.0599567E-1,3.0626228E-1,6.059865E-1,4.2402095E-1,6.2705E-1,8.40773E-1,-1.2853312E-2,1.965456E-2,-1.127348E-2,-9.236712E-2,8.6517826E-2,-4.18114E-2,5.4135293E-2,1.978383E-1,5.1539387E-3,6.4934105E-2,-5.560444E-2,5.7774257E-2],"split_indices":[10,0,2,4,4,4,0,1,8,3,3,2,6,6,1,0,0,0,0,0,0,0,0,0,0,0,0],"split_type":[0,0,0,0,0,0,0,0,0,0,0,0,0,0,0,0,0,0,0,0,0,0,0,0,0,0,0],"sum_hessian":[1.04E2,1E0,1.03E2,1.6E1,8.7E1,1.3E1,3E0,3.9E1,4.8E1,4E0,9E0,3.3E1,6E0,3.8E1,1E1,3E0,1E0,1E0,8E0,2.7E1,6E0,2E0,4E0,2.4E1,1.4E1,9E0,1E0],"tree_param":{"num_deleted":"0","num_feature":"12","num_nodes":"27","size_leaf_vector":"0"}},{"base_weights":[5.8411294E-1,6.5927696E0,4.4563577E-1,1.4786164E0,3.55324E-1,1.7332267E-2,3.4212177E0,1.3329884E-1,8.025431E-1,-2.8501248E-1,6.1335564E-1,3.587838E-1,-3.484221E-1,1.2490473E0,2.6682124E-1,-7.428408E-2,-3.3049393E-1,-1.7469987E-1,5.4243505E-1,7.795191E-2,-4.3323922E-1,1.5205736E0,1.2220645E-1,7.020921E-2,1.4113889E0],"categories":[],"categories_nodes":[],"categories_segments":[],"categories_sizes":[],"default_left":[1,0,1,1,1,1,0,1,1,1,0,1,1,1,1,0,0,0,0,0,0,0,0,0,0],"id":39,"left_children":[1,-1,3,5,7,9,-1,11,13,15,-1,17,19,21,23,-1,-1,-1,-1,-1,-1,-1,-1,-1,-1],"loss_changes":[7.3611725E1,0E0,7.9640293E0,1.9811548E1,8.333003E0,1.0758367E0,0E0,6.4250164E0,6.3643837E0,1.3786495E-2,0E0,4.01376E0,7.208843E-1,4.403681E0,3.0514085E0,0E0,0E0,0E0,0E0,0E0,0E0,0E0,0E0,0E0,0E0],"parents":[2147483647,0,0,2,2,3,3,4,4,5,5,7,7,8,8,9,9,11,11,12,12,13,13,14,14],"right_children":[2,-1,4,6,8,10,-1,12,14,16,-1,18,20,22,24,-1,-1,-1,-1,-1,-1,-1,-1,-1,-1],"split_conditions":[1.7072434E-2,6.5927696E-1,2.0297801E-1,1.6430898E-1,5.903243E-1,1.6102563E-1,3.4212178E-1,5.665248E-1,6.162448E-1,2.0486465E-1,6.1335564E-2,2.993046E-1,4.209538E-1,7.006109E-1,9.3837404E-1,-7.4284077E-3,-3.3049393E-2,-1.7469987E-2,5.4243505E-2,7.795191E-3,-4.3323923E-2,1.5205736E-1,1.2220645E-2,7.0209214E-3,1.411389E-1],"split_indices":[10,0,3,3,1,3,0,11,3,1,0,8,7,7,1,0,0,0,0,0,0,0,0,0,0],"split_type":[0,0,0,0,0,0,0,0,0,0,0,0,0,0,0,0,0,0,0,0,0,0,0,0,0],"sum_hessian":[9.1E1,1E0,9E1,6E0,8.4E1,4E0,2E0,5.7E1,2.7E1,3E0,1E0,3.9E1,1.8E1,1.4E1,1.3E1,1E0,2E0,1E1,2.9E1,3E0,1.5E1,1.1E1,3E0,1.2E1,1E0],"tree_param":{"num_deleted":"0","num_feature":"12","num_nodes":"25","size_leaf_vector":"0"}},{"base_weights":[4.7244585E-1,6.26313E0,3.5654378E-1,8.224442E-1,9.779587E-2,6.484522E-1,3.5430775E0,-2.7634636E-1,5.532671E-1,9.1725916E-1,1.0231231E-1,4.226603E-1,-4.2061824E-1,1.1306641E0,1.2908664E-1,9.79702E-2,1.0762185E0,1.5003268E0,-2.882655E-1,1.2466278E0,7.756106E-2,-7.6183736E-1,-2.3088966E-1,6.14905E-1,2.137396E0,8.071412E-1,-2.4594937E-1],"categories":[],"categories_nodes":[],"categories_segments":[],"categories_sizes":[],"default_left":[1,0,1,1,1,1,0,1,1,1,1,1,1,1,1,0,0,0,0,0,0,0,0,0,0,0,0],"id":40,"left_children":[1,-1,3,5,7,9,-1,11,13,15,17,19,21,23,25,-1,-1,-1,-1,-1,-1,-1,-1,-1,-1,-1,-1],"loss_changes":[6.823791E1,0E0,1.2456849E1,1.521711E1,1.1740842E1,5.1911755E0,0E0,4.009965E0,7.4465847E0,3.0201683E0,7.5309267E0,1.8937641E0,1.8957486E0,5.435711E0,5.030118E0,0E0,0E0,0E0,0E0,0E0,0E0,0E0,0E0,0E0,0E0,0E0,0E0],"parents":[2147483647,0,0,2,2,3,3,4,4,5,5,7,7,8,8,9,9,10,10,11,11,12,12,13,13,14,14],"right_children":[2,-1,4,6,8,10,-1,12,14,16,18,20,22,24,26,-1,-1,-1,-1,-1,-1,-1,-1,-1,-1,-1,-1],"split_conditions":[1.7072434E-2,6.2631303E-1,5.088648E-1,5.0118005E-1,5.832219E-1,5.1389194E-1,3.5430774E-1,2.807994E-1,6.201514E-1,2.8941202E-1,2.0729819E-1,9.2602246E-2,4.3573624E-1,7.1742666E-1,6.1295307E-1,9.797021E-3,1.0762185E-1,1.5003268E-1,-2.882655E-2,1.2466278E-1,7.756106E-3,-7.618374E-2,-2.3088967E-2,6.1490502E-2,2.1373962E-1,8.071412E-2,-2.4594938E-2],"split_indices":[10,0,10,10,1,6,0,3,4,8,10,8,8,6,7,0,0,0,0,0,0,0,0,0,0,0,0],"split_type":[0,0,0,0,0,0,0,0,0,0,0,0,0,0,0,0,0,0,0,0,0,0,0,0,0,0,0],"sum_hessian":[1.04E2,1E0,1.03E2,3.6E1,6.7E1,3.5E1,1E0,3.7E1,3E1,2.3E1,1.2E1,6E0,3.1E1,1.2E1,1.8E1,4E0,1.9E1,2E0,1E1,1E0,5E0,1E1,2.1E1,9E0,3E0,6E0,1.2E1],"tree_param":{"num_deleted":"0","num_feature":"12","num_nodes":"27","size_leaf_vector":"0"}},{"base_weights":[5.1632285E-1,5.949974E0,3.9391828E-1,1.2304387E0,2.89643E-1,4.5756018E-1,2.8813019E0,1.3067837E-1,8.652534E-1,7.112659E-1,2.6037931E-2,-5.2643318E-2,6.3264537E-1,1.4403409E0,-3.364849E-2,7.995181E-1,1.7912865E-1,-1.11899376E-1,2.1992493E-1,2.37735E-1,-4.038585E-1,1.5055765E0,7.071511E-2,1.7012552E0,1.774842E-1,-3.6757532E-1,6.454213E-1],"categories":[],"categories_nodes":[],"categories_segments":[],"categories_sizes":[],"default_left":[1,0,1,1,1,1,0,1,1,1,1,1,1,1,1,0,0,0,0,0,0,0,0,0,0,0,0],"id":41,"left_children":[1,-1,3,5,7,9,-1,11,13,15,17,19,21,23,25,-1,-1,-1,-1,-1,-1,-1,-1,-1,-1,-1,-1],"loss_changes":[6.017595E1,0E0,7.7558537E0,1.1440796E1,7.5730715E0,8.573177E-1,0E0,6.1987414E0,9.353515E0,9.1594696E-2,1.3158646E-1,5.1952753E0,8.723008E0,3.322527E0,2.0513182E0,0E0,0E0,0E0,0E0,0E0,0E0,0E0,0E0,0E0,0E0,0E0,0E0],"parents":[2147483647,0,0,2,2,3,3,4,4,5,5,7,7,8,8,9,9,10,10,11,11,12,12,13,13,14,14],"right_children":[2,-1,4,6,8,10,-1,12,14,16,18,20,22,24,26,-1,-1,-1,-1,-1,-1,-1,-1,-1,-1,-1,-1],"split_conditions":[1.7072434E-2,5.949974E-1,2.8993058E-1,5.008794E-1,6.601131E-1,4.5385015E-1,2.881302E-1,7.053237E-1,5.975374E-1,5.2476966E-1,6.0321486E-1,5.116081E-1,5.0254595E-1,9.222336E-1,8.872965E-1,7.9951815E-2,1.7912865E-2,-1.1189938E-2,2.1992493E-2,2.37735E-2,-4.0385853E-2,1.5055765E-1,7.071511E-3,1.7012553E-1,1.7748421E-2,-3.6757533E-2,6.454214E-2],"split_indices":[10,0,4,2,6,11,0,4,0,1,0,6,2,8,5,0,0,0,0,0,0,0,0,0,0,0,0],"split_type":[0,0,0,0,0,0,0,0,0,0,0,0,0,0,0,0,0,0,0,0,0,0,0,0,0,0,0],"sum_hessian":[9.3E1,1E0,9.2E1,9E0,8.3E1,7E0,2E0,6.6E1,1.7E1,4E0,3E0,4.9E1,1.7E1,1E1,7E0,3E0,1E0,2E0,1E0,2.7E1,2.2E1,6E0,1.1E1,8E0,2E0,5E0,2E0],"tree_param":{"num_deleted":"0","num_feature":"12","num_nodes":"27","size_leaf_vector":"0"}},{"base_weights":[4.5026588E-1,2.0255797E0,2.7603576E-1,3.241717E-1,3.6621532E0,1.0249512E-1,6.198107E-1,-4.6717644E-1,8.366399E-1,5.9162216E0,1.8736713E-1,6.7386204E-1,-3.132985E-2,8.744162E-1,7.739934E-2,4.9698162E-1,-2.1593094E-1,-4.686489E-1,9.492291E-1,-1.5930656E-1,3.274145E-1,3.2351738E-1,1.729187E0,3.9708164E-1,-3.8563576E-1,1.2390532E0,-1.4004485E-1,3.5647288E-2,-5.519563E-1,9.4575137E-1,-1.4495373E-2,1.5906636E0,-2.0228943E-2,2.0089192E0,-1.1446953E-1,-3.8665135E-3,5.582342E-1],"categories":[],"categories_nodes":[],"categories_segments":[],"categories_sizes":[],"default_left":[1,1,1,1,1,1,1,0,0,0,1,1,1,1,1,0,0,0,1,1,1,1,1,1,0,0,0,0,0,0,0,0,0,0,0,0,0],"id":42,"left_children":[1,3,5,7,9,11,13,-1,-1,-1,15,17,19,21,23,-1,-1,-1,25,27,29,31,33,35,-1,-1,-1,-1,-1,-1,-1,-1,-1,-1,-1,-1,-1],"loss_changes":[2.743652E1,2.6657623E1,5.484753E0,2.824103E0,3.805352E1,4.838291E0,4.2134485E0,0E0,0E0,0E0,4.8191446E-1,4.2201743E0,2.439527E0,9.329313E0,1.7813942E0,0E0,0E0,0E0,3.3305016E0,3.0050704E0,2.9735253E0,6.1302533E0,4.3558006E0,4.5445514E-1,0E0,0E0,0E0,0E0,0E0,0E0,0E0,0E0,0E0,0E0,0E0,0E0,0E0],"parents":[2147483647,0,0,1,1,2,2,3,3,4,4,5,5,6,6,10,10,11,11,12,12,13,13,14,14,18,18,19,19,20,20,21,21,22,22,23,23],"right_children":[2,4,6,8,10,12,14,-1,-1,-1,16,18,20,22,24,-1,-1,-1,26,28,30,32,34,36,-1,-1,-1,-1,-1,-1,-1,-1,-1,-1,-1,-1,-1],"split_conditions":[2.2783205E-1,5.0968856E-1,6.0253465E-1,2.0875823E-1,4.8317337E-1,3.5293055E-1,6.991098E-1,-4.6717644E-2,8.366399E-2,5.916222E-1,6.628847E-1,2.6678866E-1,6.007266E-1,5.832219E-1,7.2123504E-1,4.9698163E-2,-2.1593094E-2,-4.6864893E-2,5.552728E-1,5.8359414E-1,5.796474E-1,6.123991E-1,6.8548536E-1,5.81885E-1,-3.8563576E-2,1.2390532E-1,-1.4004486E-2,3.564729E-3,-5.519563E-2,9.457514E-2,-1.4495373E-3,1.5906636E-1,-2.0228943E-3,2.0089193E-1,-1.1446953E-2,-3.8665134E-4,5.5823423E-2],"split_indices":[11,7,6,3,0,11,0,0,0,0,0,11,1,1,8,0,0,0,0,8,3,6,3,1,0,0,0,0,0,0,0,0,0,0,0,0,0],"split_type":[0,0,0,0,0,0,0,0,0,0,0,0,0,0,0,0,0,0,0,0,0,0,0,0,0,0,0,0,0,0,0,0,0,0,0,0,0],"sum_hessian":[1.01E2,9E0,9.2E1,5E0,4E0,6.2E1,3E1,2E0,3E0,2E0,2E0,1.1E1,5.1E1,2E1,1E1,1E0,1E0,2E0,9E0,3.8E1,1.3E1,1.3E1,7E0,6E0,4E0,7E0,2E0,2.6E1,1.2E1,4E0,9E0,2E0,1.1E1,6E0,1E0,2E0,4E0],"tree_param":{"num_deleted":"0","num_feature":"12","num_nodes":"37","size_leaf_vector":"0"}},{"base_weights":[3.0929723E-1,2.8289347E0,1.9878824E-1,2.0080312E-1,5.3566647E0,4.5563318E-2,6.9818056E-1,7.7013206E-1,-4.6892738E-1,2.0706753E-1,-2.5435072E-1,1.1396562E0,5.4444123E-2,8.7533645E-2,7.937952E-1,9.5826674E-1,-3.411861E-1,1.4741367E0,1.854086E-2,-3.0582747E-1,1.8274045E-1,-2.1923812E-1,3.1396523E-1,1.071989E0,-2.7190844E-2,-3.1376097E-2,-4.851334E-1,2.2937775E-2,1.8340693E0,-3.4516653E-1,5.548315E-1,2.443947E-1,-1.2441969E-1],"categories":[],"categories_nodes":[],"categories_segments":[],"categories_sizes":[],"default_left":[1,1,1,1,0,1,1,0,0,1,1,1,1,1,1,0,1,1,1,0,1,0,0,0,0,0,0,0,0,0,0,0,0],"id":43,"left_children":[1,3,5,7,-1,9,11,-1,-1,13,15,17,19,21,23,-1,25,27,29,-1,31,-1,-1,-1,-1,-1,-1,-1,-1,-1,-1,-1,-1],"loss_changes":[2.6446579E1,2.5497192E1,7.161007E0,1.5050268E0,0E0,3.588597E0,6.19022E0,0E0,0E0,3.2969406E0,3.0646973E0,4.847555E0,5.181023E-1,2.9168088E0,1.8562942E0,0E0,1.0996864E0,5.1812687E0,9.717207E-1,0E0,1.8190935E-1,0E0,0E0,0E0,0E0,0E0,0E0,0E0,0E0,0E0,0E0,0E0,0E0],"parents":[2147483647,0,0,1,1,2,2,3,3,5,5,6,6,9,9,10,10,11,11,12,12,13,13,14,14,16,16,17,17,18,18,20,20],"right_children":[2,4,6,8,-1,10,12,-1,-1,14,16,18,20,22,24,-1,26,28,30,-1,32,-1,-1,-1,-1,-1,-1,-1,-1,-1,-1,-1,-1],"split_conditions":[1.4677429E-1,2.9476067E-1,6.713499E-1,1.5237811E-1,5.3566647E-1,5.5798304E-1,6.9572604E-1,7.701321E-2,-4.689274E-2,6.291679E-1,3.024577E-1,8.071796E-1,5.366125E-1,4.578976E-1,6.991098E-1,9.582668E-2,5.102595E-1,4.9703854E-1,4.3907166E-1,-3.0582746E-2,9.625721E-1,-2.1923812E-2,3.1396523E-2,1.0719891E-1,-2.7190845E-3,-3.1376097E-3,-4.851334E-2,2.2937774E-3,1.8340693E-1,-3.4516655E-2,5.548315E-2,2.443947E-2,-1.24419695E-2],"split_indices":[11,0,2,0,0,5,0,0,0,0,1,8,11,8,0,0,1,1,0,0,3,0,0,0,0,0,0,0,0,0,0,0,0],"split_type":[0,0,0,0,0,0,0,0,0,0,0,0,0,0,0,0,0,0,0,0,0,0,0,0,0,0,0,0,0,0,0,0,0],"sum_hessian":[9.6E1,3E0,9.3E1,2E0,1E0,7.2E1,2.1E1,1E0,1E0,4.7E1,2.5E1,1.2E1,9E0,4E1,7E0,1E0,2.4E1,9E0,3E0,2E0,7E0,1.7E1,2.3E1,5E0,2E0,8E0,1.6E1,2E0,7E0,2E0,1E0,6E0,1E0],"tree_param":{"num_deleted":"0","num_feature":"12","num_nodes":"33","size_leaf_vector":"0"}},{"base_weights":[4.7476977E-1,5.088831E0,3.7473994E-1,4.7439563E-1,-3.0568108E-1,1.1002314E0,3.762811E-1,-4.2308912E-1,5.516076E-1,2.910349E0,6.281848E-1,2.7171975E-1,1.1128732E0,-5.5391175E-1,-1.9994783E-1,8.843411E-1,2.2865057E-2,1.4469583E-2,5.3632694E-1,1.5666283E0,-3.1684652E-1,-6.309862E-1,-4.57325E-2],"categories":[],"categories_nodes":[],"categories_segments":[],"categories_sizes":[],"default_left":[1,0,1,1,1,1,1,1,0,0,1,1,1,1,0,0,0,0,0,0,0,0,0],"id":44,"left_children":[1,-1,3,5,7,9,11,13,-1,-1,15,17,19,21,-1,-1,-1,-1,-1,-1,-1,-1,-1],"loss_changes":[4.3324295E1,0E0,6.722371E0,4.8053093E0,1.5418626E0,7.570822E0,5.474039E0,2.3954964E-1,0E0,0E0,1.5303445E0,4.552946E0,6.335065E0,2.4531698E-1,0E0,0E0,0E0,0E0,0E0,0E0,0E0,0E0,0E0],"parents":[2147483647,0,0,2,2,3,3,4,4,5,5,6,6,7,7,10,10,11,11,12,12,13,13],"right_children":[2,-1,4,6,8,10,12,14,-1,-1,16,18,20,22,-1,-1,-1,-1,-1,-1,-1,-1,-1],"split_conditions":[1.7072434E-2,5.088831E-1,6.9993687E-1,2.8993058E-1,8.906324E-1,2.5092232E-1,5.8599603E-1,7.1196663E-1,5.516076E-2,2.910349E-1,4.5385015E-1,4.310798E-1,7.0051515E-1,9.0265226E-1,-1.9994784E-2,8.8434115E-2,2.2865057E-3,1.4469583E-3,5.3632695E-2,1.5666284E-1,-3.1684652E-2,-6.3098624E-2,-4.5732497E-3],"split_indices":[10,0,5,4,5,11,3,0,0,0,11,0,0,4,0,0,0,0,0,0,0,0,0],"split_type":[0,0,0,0,0,0,0,0,0,0,0,0,0,0,0,0,0,0,0,0,0,0,0],"sum_hessian":[9.7E1,1E0,9.6E1,8.4E1,1.2E1,1E1,7.4E1,1.1E1,1E0,1E0,9E0,6.6E1,8E0,6E0,5E0,6E0,3E0,3.4E1,3.2E1,6E0,2E0,5E0,1E0],"tree_param":{"num_deleted":"0","num_feature":"12","num_nodes":"23","size_leaf_vector":"0"}},{"base_weights":[3.93663E-1,4.8343887E0,3.0361333E-1,6.0778576E-1,5.7138428E-2,1.7915751E-1,9.6066713E-1,1.3945432E0,-4.1166253E-2,-1.9706821E-1,4.0821996E-1,3.4201777E-1,1.3502989E0,1.7527536E0,1.5995598E-1,-1.5863593E-1,5.7686055E-1,2.7063506E-2,-6.5435284E-1,-2.9935837E-2,8.506523E-1,9.285755E-1,-1.2581171E-1,2.7648315E0,1.0517728E0,1.0994129E0,-2.098851E-1,-2.7358055E-2,1.3389733E0],"categories":[],"categories_nodes":[],"categories_segments":[],"categories_sizes":[],"default_left":[1,0,1,1,1,1,1,1,1,1,1,1,1,0,0,1,1,0,0,0,0,0,0,0,0,0,0,0,0],"id":45,"left_children":[1,-1,3,5,7,9,11,13,15,17,19,21,23,-1,-1,25,27,-1,-1,-1,-1,-1,-1,-1,-1,-1,-1,-1,-1],"loss_changes":[4.0120342E1,0E0,7.68727E0,6.785614E0,7.682851E0,1.9763892E0,5.56431E0,1.488605E0,4.0844784E0,9.40137E-1,2.739425E0,3.135325E0,3.4261475E0,0E0,0E0,3.2610261E0,4.180976E0,0E0,0E0,0E0,0E0,0E0,0E0,0E0,0E0,0E0,0E0,0E0,0E0],"parents":[2147483647,0,0,2,2,3,3,4,4,5,5,6,6,7,7,8,8,9,9,10,10,11,11,12,12,15,15,16,16],"right_children":[2,-1,4,6,8,10,12,14,16,18,20,22,24,-1,-1,26,28,-1,-1,-1,-1,-1,-1,-1,-1,-1,-1,-1,-1],"split_conditions":[1.7072434E-2,4.8343888E-1,5.682529E-1,4.4427416E-1,2.6356524E-1,2.813038E-1,4.479285E-1,6.027379E-1,8.1724995E-1,2.5764456E-1,4.4503844E-1,3.1156212E-1,4.4962198E-1,1.7527537E-1,1.5995597E-2,1.24812126E-1,7.741913E-1,2.7063505E-3,-6.543528E-2,-2.9935837E-3,8.506523E-2,9.2857555E-2,-1.25811715E-2,2.7648315E-1,1.0517728E-1,1.099413E-1,-2.098851E-2,-2.7358055E-3,1.3389733E-1],"split_indices":[10,0,4,2,10,2,1,1,11,2,10,4,1,0,0,2,6,0,0,0,0,0,0,0,0,0,0,0,0],"split_type":[0,0,0,0,0,0,0,0,0,0,0,0,0,0,0,0,0,0,0,0,0,0,0,0,0,0,0,0,0],"sum_hessian":[1.03E2,1E0,1.02E2,4.5E1,5.7E1,2.1E1,2.4E1,3E0,5.4E1,8E0,1.3E1,1E1,1.4E1,2E0,1E0,4.6E1,8E0,6E0,2E0,7E0,6E0,4E0,6E0,1E0,1.3E1,1E0,4.5E1,5E0,3E0],"tree_param":{"num_deleted":"0","num_feature":"12","num_nodes":"29","size_leaf_vector":"0"}},{"base_weights":[2.9425347E-1,4.5926685E0,2.0957649E-1,9.516131E-1,1.3009791E-1,2.1108463E0,3.979491E-1,7.936666E-1,6.8989515E-2,5.396786E-1,2.6265907E0,-1.1140283E-1,5.863002E-1,1.7427921E-2,1.2559242E0,-5.216291E-1,1.5896943E-1,-1.7338371E-1,1.3882637E-1,4.57304E-1,1.635903E0,-2.5707686E-1,-8.4058684E-1,7.176037E-1,8.487404E-2],"categories":[],"categories_nodes":[],"categories_segments":[],"categories_sizes":[],"default_left":[1,0,1,1,1,1,1,1,1,0,0,0,0,1,1,1,1,0,0,0,0,0,0,0,0],"id":46,"left_children":[1,-1,3,5,7,9,11,13,15,-1,-1,-1,-1,17,19,21,23,-1,-1,-1,-1,-1,-1,-1,-1],"loss_changes":[3.761903E1,0E0,6.068678E0,5.578247E0,3.8380084E0,1.0134487E0,8.3281136E-1,2.8486905E0,4.812723E0,0E0,0E0,0E0,0E0,1.1672718E-1,7.6918936E-1,7.964761E-1,3.167688E0,0E0,0E0,0E0,0E0,0E0,0E0,0E0,0E0],"parents":[2147483647,0,0,2,2,3,3,4,4,5,5,6,6,7,7,8,8,13,13,14,14,15,15,16,16],"right_children":[2,-1,4,6,8,10,12,14,16,-1,-1,-1,-1,18,20,22,24,-1,-1,-1,-1,-1,-1,-1,-1],"split_conditions":[1.7072434E-2,4.5926687E-1,2.8993058E-1,2.3192948E-1,2.3826227E-1,4.070128E-1,2.1683258E-1,4.5813495E-1,4.1070354E-1,5.396786E-2,2.6265907E-1,-1.1140283E-2,5.863002E-2,5.0885445E-1,5.412458E-1,4.990661E-1,5.002732E-1,-1.733837E-2,1.3882637E-2,4.57304E-2,1.635903E-1,-2.5707686E-2,-8.405869E-2,7.176037E-2,8.487404E-3],"split_indices":[10,0,4,9,10,1,3,8,10,0,0,0,0,1,1,6,10,0,0,0,0,0,0,0,0],"split_type":[0,0,0,0,0,0,0,0,0,0,0,0,0,0,0,0,0,0,0,0,0,0,0,0,0],"sum_hessian":[1.05E2,1E0,1.04E2,9E0,9.5E1,2E0,7E0,7E0,8.8E1,1E0,1E0,2E0,5E0,3E0,4E0,1.1E1,7.7E1,1E0,2E0,2E0,2E0,7E0,4E0,8E0,6.9E1],"tree_param":{"num_deleted":"0","num_feature":"12","num_nodes":"25","size_leaf_vector":"0"}},{"base_weights":[2.782142E-1,4.363035E0,1.9698481E-1,2.7003792E-1,-5.167181E-1,3.396035E-1,-2.3942454E-1,-5.9239495E-1,-1.426738E-1,-1.604027E-1,4.1714424E-1,-3.5760453E-1,5.302777E-1,-6.3890934E-2,-6.5876824E-1,1.8033266E-1,-6.7349875E-1,5.030414E-1,-1.7431192E-1,-7.897353E-2,-4.522195E-1],"categories":[],"categories_nodes":[],"categories_segments":[],"categories_sizes":[],"default_left":[1,0,1,1,1,1,1,1,0,1,1,1,0,0,0,0,0,0,0,0,0],"id":47,"left_children":[1,-1,3,5,7,9,11,13,-1,15,17,19,-1,-1,-1,-1,-1,-1,-1,-1,-1],"loss_changes":[3.3980335E1,0E0,5.561908E0,3.4482107E0,1.9854546E-1,3.3236609E0,1.2811906E0,2.3853922E-1,0E0,2.2194135E0,3.7964067E0,2.5427592E-1,0E0,0E0,0E0,0E0,0E0,0E0,0E0,0E0,0E0],"parents":[2147483647,0,0,2,2,3,3,4,4,5,5,6,6,7,7,9,9,10,10,11,11],"right_children":[2,-1,4,6,8,10,12,14,-1,16,18,20,-1,-1,-1,-1,-1,-1,-1,-1,-1],"split_conditions":[1.7072434E-2,4.3630353E-1,7.703843E-1,6.9993687E-1,6.727233E-1,2.3205474E-1,9.291602E-1,4.0952906E-2,-1.426738E-2,3.6534524E-1,6.976596E-1,4.4283932E-1,5.3027775E-2,-6.3890936E-3,-6.587683E-2,1.8033266E-2,-6.734987E-2,5.030414E-2,-1.7431192E-2,-7.897354E-3,-4.522195E-2],"split_indices":[10,0,10,5,0,9,2,5,0,10,0,11,0,0,0,0,0,0,0,0,0],"split_type":[0,0,0,0,0,0,0,0,0,0,0,0,0,0,0,0,0,0,0,0,0],"sum_hessian":[1.04E2,1E0,1.03E2,9.4E1,9E0,8.3E1,1.1E1,7E0,2E0,1.1E1,7.2E1,1E1,1E0,1E0,6E0,7E0,4E0,6.3E1,9E0,3E0,7E0],"tree_param":{"num_deleted":"0","num_feature":"12","num_nodes":"21","size_leaf_vector":"0"}},{"base_weights":[2.963497E-1,4.144884E0,2.202219E-1,-3.2106448E-2,3.698115E-1,5.908183E-1,-1.5941134E-1,7.865364E-1,1.846134E-1,-1.21730484E-1,9.0018386E-1,-4.521647E-1,6.812425E-2,5.6172925E-1,2.5289364E0,-7.770938E-2,3.818047E-1,-6.2357086E-1,1.5361786E-2,2.2075939E-1,-5.976062E-1,-3.5226297E-1,7.551192E-1,2.9509187E-1,-2.85188E-1,1.1018944E0,1.2359365E-1],"categories":[],"categories_nodes":[],"categories_segments":[],"categories_sizes":[],"default_left":[1,0,1,1,1,1,1,1,1,0,0,1,1,1,0,1,1,0,0,0,0,0,0,0,0,0,0],"id":48,"left_children":[1,-1,3,5,7,9,11,13,15,-1,-1,17,19,21,-1,23,25,-1,-1,-1,-1,-1,-1,-1,-1,-1,-1],"loss_changes":[3.0143135E1,0E0,3.9751716E0,3.2662377E0,4.948454E0,1.6526463E0,2.295605E0,6.4135027E0,2.4608755E0,0E0,0E0,1.2116327E0,2.1642044E0,3.6243825E0,0E0,1.7084706E0,4.884061E0,0E0,0E0,0E0,0E0,0E0,0E0,0E0,0E0,0E0,0E0],"parents":[2147483647,0,0,2,2,3,3,4,4,5,5,6,6,7,7,8,8,11,11,12,12,13,13,15,15,16,16],"right_children":[2,-1,4,6,8,10,12,14,16,-1,-1,18,20,22,-1,24,26,-1,-1,-1,-1,-1,-1,-1,-1,-1,-1],"split_conditions":[1.7072434E-2,4.144884E-1,4.3573624E-1,2.4782732E-1,5.3201544E-1,3.4702244E-1,4.1571176E-1,5.3026795E-1,5.174104E-1,-1.2173048E-2,9.0018384E-2,5.762733E-1,7.4445546E-1,2.3016176E-1,2.5289366E-1,3.6317635E-1,5.24649E-1,-6.2357087E-2,1.5361786E-3,2.207594E-2,-5.976062E-2,-3.5226297E-2,7.5511925E-2,2.9509187E-2,-2.85188E-2,1.1018944E-1,1.2359365E-2],"split_indices":[10,0,8,3,8,1,3,8,1,0,0,7,4,3,0,3,4,0,0,0,0,0,0,0,0,0,0],"split_type":[0,0,0,0,0,0,0,0,0,0,0,0,0,0,0,0,0,0,0,0,0,0,0,0,0,0,0],"sum_hessian":[1.05E2,1E0,1.04E2,3.9E1,6.5E1,6E0,3.3E1,1.9E1,4.6E1,2E0,4E0,1.4E1,1.9E1,1.8E1,1E0,2E1,2.6E1,1E1,4E0,1.6E1,3E0,3E0,1.5E1,7E0,1.3E1,6E0,2E1],"tree_param":{"num_deleted":"0","num_feature":"12","num_nodes":"27","size_leaf_vector":"0"}},{"base_weights":[2.5271875E-1,3.9376392E0,1.8526247E-1,2.4838667E-1,-4.2265156E-1,7.255363E-1,1.8344991E-1,-8.0085516E-2,-5.411031E-1,3.5467798E-1,2.4024887E0,-1.9240823E-2,3.5409495E-1,3.4849644E-2,-1.3001378E-1,-6.280678E-1,-1.8680604E-1,6.0212463E-1,-6.268291E-2,1.9164841E-1,-2.7134585E-1,1.1825095E0,2.142541E-1],"categories":[],"categories_nodes":[],"categories_segments":[],"categories_sizes":[],"default_left":[1,0,1,1,1,1,1,1,1,1,0,1,1,0,0,0,0,0,0,0,0,0,0],"id":49,"left_children":[1,-1,3,5,7,9,11,13,15,17,-1,19,21,-1,-1,-1,-1,-1,-1,-1,-1,-1,-1],"loss_changes":[2.7607601E1,0E0,4.441252E0,3.0583086E0,4.0301788E-1,6.610831E0,3.1889246E0,2.7484987E-2,1.2916398E-1,1.1737628E0,0E0,2.3381512E0,5.538952E0,0E0,0E0,0E0,0E0,0E0,0E0,0E0,0E0,0E0,0E0],"parents":[2147483647,0,0,2,2,3,3,4,4,5,5,6,6,7,7,8,8,9,9,11,11,12,12],"right_children":[2,-1,4,6,8,10,12,14,16,18,-1,20,22,-1,-1,-1,-1,-1,-1,-1,-1,-1,-1],"split_conditions":[1.7072434E-2,3.9376393E-1,7.627514E-1,2.8557837E-1,5.4490936E-1,2.6650837E-1,5.6274295E-1,5.3301644E-1,8.573987E-1,4.032175E-1,2.4024887E-1,4.8883492E-1,5.869841E-1,3.4849644E-3,-1.3001378E-2,-6.280678E-2,-1.8680604E-2,6.0212463E-2,-6.2682913E-3,1.9164842E-2,-2.7134586E-2,1.1825096E-1,2.142541E-2],"split_indices":[10,0,10,4,8,4,10,1,10,10,0,0,10,0,0,0,0,0,0,0,0,0,0],"split_type":[0,0,0,0,0,0,0,0,0,0,0,0,0,0,0,0,0,0,0,0,0,0,0],"sum_hessian":[1.13E2,1E0,1.12E2,1.02E2,1E1,1.1E1,9.1E1,3E0,7E0,1E1,1E0,4.2E1,4.9E1,1E0,2E0,5E0,2E0,6E0,4E0,2.3E1,1.9E1,6E0,4.3E1],"tree_param":{"num_deleted":"0","num_feature":"12","num_nodes":"23","size_leaf_vector":"0"}},{"base_weights":[1.9452897E-1,3.740757E0,1.251291E-1,5.359529E-1,2.8133703E-2,1.4637136E-1,1.2385513E0,9.2039965E-2,-4.1595805E-1,4.1389266E-1,-4.1794547E-1,6.3386033E-3,6.5703505E-1,3.831339E-1,-5.3418064E-1,-1.0348574E-1,5.5617297E-1,-1.7442036E-1,-5.2215546E-1,1.5207171E-1,-3.2012782E-1,8.884431E-1,-1.7906475E-1,-6.033242E-1,-1.7173767E-1],"categories":[],"categories_nodes":[],"categories_segments":[],"categories_sizes":[],"default_left":[1,0,1,1,1,1,0,1,1,1,1,1,1,0,1,0,0,0,0,0,0,0,0,0,0],"id":50,"left_children":[1,-1,3,5,7,9,-1,11,13,15,17,19,21,-1,23,-1,-1,-1,-1,-1,-1,-1,-1,-1,-1],"loss_changes":[2.5619343E1,0E0,4.168964E0,5.2930984E0,2.4789858E0,2.2865193E0,0E0,3.6758196E0,1.2438403E0,7.9368365E-1,3.5814166E-2,3.2363389E0,2.0938907E0,0E0,1.4699244E-1,0E0,0E0,0E0,0E0,0E0,0E0,0E0,0E0,0E0,0E0],"parents":[2147483647,0,0,2,2,3,3,4,4,5,5,7,7,8,8,9,9,10,10,11,11,12,12,14,14],"right_children":[2,-1,4,6,8,10,-1,12,14,16,18,20,22,-1,24,-1,-1,-1,-1,-1,-1,-1,-1,-1,-1],"split_conditions":[1.7072434E-2,3.740757E-1,3.8547266E-1,3.60103E-1,7.4445546E-1,3.403027E-1,1.2385513E-1,7.129333E-1,3.4723315E-1,3.724147E-1,4.5475346E-1,5.998893E-1,9.222336E-1,3.831339E-2,7.3343194E-1,-1.0348574E-2,5.56173E-2,-1.7442036E-2,-5.2215546E-2,1.5207171E-2,-3.2012783E-2,8.8844314E-2,-1.7906476E-2,-6.0332417E-2,-1.7173767E-2],"split_indices":[10,0,7,7,4,7,0,6,6,4,1,8,8,0,1,0,0,0,0,0,0,0,0,0,0],"split_type":[0,0,0,0,0,0,0,0,0,0,0,0,0,0,0,0,0,0,0,0,0,0,0,0,0],"sum_hessian":[1.05E2,1E0,1.04E2,1.9E1,8.5E1,1.3E1,6E0,7.5E1,1E1,9E0,4E0,6.6E1,9E0,1E0,9E0,2E0,7E0,2E0,2E0,4.6E1,2E1,7E0,2E0,7E0,2E0],"tree_param":{"num_deleted":"0","num_feature":"12","num_nodes":"25","size_leaf_vector":"0"}},{"base_weights":[2.3168659E-1,3.5537186E0,1.6620326E-1,3.5503247E-1,-4.8609525E-2,1.585268E-1,7.293579E-1,-2.6458332E-1,2.1642855E-1,6.6951215E-1,-2.31415E-2,2.0288048E0,4.571403E-1,-4.642109E-1,4.0271044E-2,1.443662E0,3.0803362E-2,1.2265663E-1,1.0136398E0,1.6759434E-1,-4.0229902E-1,5.9190404E-2,1.0171844E0,2.6110363E-1,-5.2586204E-1,4.4429174E-1,-3.1178543E-1,-1.4125308E-1,3.950953E-1],"categories":[],"categories_nodes":[],"categories_segments":[],"categories_sizes":[],"default_left":[1,0,1,1,1,1,1,1,1,1,1,0,1,1,1,0,1,0,0,0,0,0,0,0,0,0,0,0,0],"id":51,"left_children":[1,-1,3,5,7,9,11,13,15,17,19,-1,21,23,25,-1,27,-1,-1,-1,-1,-1,-1,-1,-1,-1,-1,-1,-1],"loss_changes":[2.2468363E1,0E0,4.2763653E0,4.003573E0,2.9193273E0,3.5430272E0,5.7934656E0,1.7226998E0,5.1950555E0,1.7575517E0,2.164672E0,0E0,3.7285736E0,8.9748454E-1,1.845381E0,0E0,1.3720627E0,0E0,0E0,0E0,0E0,0E0,0E0,0E0,0E0,0E0,0E0,0E0,0E0],"parents":[2147483647,0,0,2,2,3,3,4,4,5,5,6,6,7,7,8,8,9,9,10,10,12,12,13,13,14,14,16,16],"right_children":[2,-1,4,6,8,10,12,14,16,18,20,-1,22,24,26,-1,28,-1,-1,-1,-1,-1,-1,-1,-1,-1,-1,-1,-1],"split_conditions":[1.7072434E-2,3.5537186E-1,5.4895383E-1,5.4452825E-1,6.767585E-1,3.744908E-1,5.5325854E-1,5.929404E-1,3.3782956E-1,3.4221345E-1,5.113828E-1,2.0288049E-1,4.3147928E-1,2.7433133E-1,5.959062E-1,1.443662E-1,8.256E-1,1.2265663E-2,1.0136398E-1,1.6759435E-2,-4.02299E-2,5.9190406E-3,1.0171844E-1,2.6110364E-2,-5.2586205E-2,4.4429176E-2,-3.1178543E-2,-1.4125309E-2,3.950953E-2],"split_indices":[10,0,11,2,10,7,2,1,8,8,5,0,11,1,10,0,11,0,0,0,0,0,0,0,0,0,0,0,0],"split_type":[0,0,0,0,0,0,0,0,0,0,0,0,0,0,0,0,0,0,0,0,0,0,0,0,0,0,0,0,0],"sum_hessian":[1.05E2,1E0,1.04E2,5.5E1,4.9E1,3.7E1,1.8E1,2.7E1,2.2E1,9E0,2.8E1,2E0,1.6E1,1.6E1,1.1E1,2E0,2E1,4E0,5E0,1.9E1,9E0,1E1,6E0,1E0,1.5E1,5E0,6E0,1.4E1,6E0],"tree_param":{"num_deleted":"0","num_feature":"12","num_nodes":"29","size_leaf_vector":"0"}},{"base_weights":[2.186253E-1,3.3760319E0,1.5329093E-1,8.4668636E-1,1.07883945E-1,2.1733208E0,1.4669533E-1,7.421519E-1,6.44007E-2,-1.03562035E-1,3.4805426E-1,6.569036E-2,1.0639601E0,3.1862356E-2,7.560096E-1,-1.8168259E-1,2.6339531E-2,8.911133E-3,8.9624405E-2,1.5370941E-1,1.3161405E0,8.758158E-2,-3.2368127E-1,4.562044E-2,9.7759914E-1],"categories":[],"categories_nodes":[],"categories_segments":[],"categories_sizes":[],"default_left":[1,0,1,1,1,0,1,1,1,1,0,1,1,1,1,0,0,0,0,0,0,0,0,0,0],"id":52,"left_children":[1,-1,3,5,7,-1,9,11,13,15,-1,17,19,21,23,-1,-1,-1,-1,-1,-1,-1,-1,-1,-1],"loss_changes":[2.0317495E1,0E0,3.0571554E0,5.2529774E0,2.5723076E0,0E0,2.8800297E-1,1.236253E0,2.0012548E0,3.5229377E-2,0E0,3.2782154E-3,7.158866E-1,1.7518722E0,5.850611E-1,0E0,0E0,0E0,0E0,0E0,0E0,0E0,0E0,0E0,0E0],"parents":[2147483647,0,0,2,2,3,3,4,4,6,6,7,7,8,8,9,9,11,11,12,12,13,13,14,14],"right_children":[2,-1,4,6,8,-1,10,12,14,16,-1,18,20,22,24,-1,-1,-1,-1,-1,-1,-1,-1,-1,-1],"split_conditions":[1.7072434E-2,3.3760318E-1,2.2783205E-1,4.5781562E-1,2.4449523E-1,2.1733208E-1,4.6341348E-1,3.5039032E-1,7.924621E-1,6.1016417E-1,3.480543E-2,5.8277315E-1,5.412458E-1,6.8864435E-1,7.0323384E-1,-1.816826E-2,2.6339532E-3,8.911133E-4,8.96244E-3,1.5370942E-2,1.3161406E-1,8.758158E-3,-3.2368127E-2,4.562044E-3,9.775992E-2],"split_indices":[10,0,11,1,10,0,8,8,9,1,0,1,1,7,1,0,0,0,0,0,0,0,0,0,0],"split_type":[0,0,0,0,0,0,0,0,0,0,0,0,0,0,0,0,0,0,0,0,0,0,0,0,0],"sum_hessian":[1E2,1E0,9.9E1,5E0,9.4E1,1E0,4E0,5E0,8.9E1,2E0,2E0,2E0,3E0,8.6E1,3E0,1E0,1E0,1E0,1E0,1E0,2E0,7.5E1,1.1E1,1E0,2E0],"tree_param":{"num_deleted":"0","num_feature":"12","num_nodes":"25","size_leaf_vector":"0"}},{"base_weights":[1.6796587E-1,3.2072296E0,1.0847547E-1,3.0482826E-1,-4.3869607E-2,8.500138E-2,5.863532E-1,-3.6479813E-1,1.2571461E-1,5.177381E-1,-2.000048E-1,2.0646553E0,3.9988172E-1,-4.3301138E-1,4.9973345E-1,-8.9922674E-2,4.547907E-1,7.0645714E-1,-2.2099845E-1,4.655568E-2,-6.5979165E-1,2.1372875E-2,9.1765976E-1,1.5132777E-1,-5.0634503E-1,-2.620476E-1,1.9446945E-1,-6.476137E-2,9.8243797E-1],"categories":[],"categories_nodes":[],"categories_segments":[],"categories_sizes":[],"default_left":[1,0,1,1,1,1,1,1,1,1,1,0,1,1,0,1,1,0,0,0,0,0,0,0,0,0,0,0,0],"id":53,"left_children":[1,-1,3,5,7,9,11,13,15,17,19,-1,21,23,-1,25,27,-1,-1,-1,-1,-1,-1,-1,-1,-1,-1,-1,-1],"loss_changes":[1.8817642E1,0E0,3.1542778E0,2.796949E0,3.3113253E0,3.4335315E0,4.687605E0,1.4548128E0,2.8793392E0,1.6896765E0,1.9579263E0,0E0,3.7040749E0,9.336586E-1,0E0,1.2747345E0,4.449868E0,0E0,0E0,0E0,0E0,0E0,0E0,0E0,0E0,0E0,0E0,0E0,0E0],"parents":[2147483647,0,0,2,2,3,3,4,4,5,5,6,6,7,7,8,8,9,9,10,10,12,12,13,13,15,15,16,16],"right_children":[2,-1,4,6,8,10,12,14,16,18,20,-1,22,24,-1,26,28,-1,-1,-1,-1,-1,-1,-1,-1,-1,-1,-1,-1],"split_conditions":[1.7072434E-2,3.2072297E-1,4.7806764E-1,4.8440427E-1,5.1572156E-1,3.809644E-1,2.0297801E-1,5.342253E-1,6.664032E-1,5.5620444E-1,4.482907E-1,2.0646553E-1,4.3631166E-1,3.7048373E-1,4.9973346E-2,6.007266E-1,6.062492E-1,7.064571E-2,-2.2099845E-2,4.655568E-3,-6.597917E-2,2.1372875E-3,9.176598E-2,1.5132777E-2,-5.0634503E-2,-2.620476E-2,1.9446945E-2,-6.4761373E-3,9.8243795E-2],"split_indices":[10,0,11,7,0,7,3,3,10,0,6,0,11,10,0,1,6,0,0,0,0,0,0,0,0,0,0,0,0],"split_type":[0,0,0,0,0,0,0,0,0,0,0,0,0,0,0,0,0,0,0,0,0,0,0,0,0,0,0,0,0],"sum_hessian":[1.05E2,1E0,1.04E2,4.5E1,5.9E1,2.6E1,1.9E1,2E1,3.9E1,1E1,1.6E1,1E0,1.8E1,1.9E1,1E0,2.4E1,1.5E1,8E0,2E0,1.1E1,5E0,1.1E1,7E0,2E0,1.7E1,1.5E1,9E0,8E0,7E0],"tree_param":{"num_deleted":"0","num_feature":"12","num_nodes":"29","size_leaf_vector":"0"}},{"base_weights":[1.483166E-1,3.0468674E0,9.222776E-2,-3.8824922E-1,1.7569374E-1,-5.262654E-1,8.4099674E-1,4.7791758E-1,2.6622618E-2,-7.1957326E-1,4.2650225E-3,9.109068E-2,9.7676116E-1,-6.6044426E-1,6.0532253E-2,2.8962135E-2,-8.891325E-1,-2.4995773E-1,2.570661E-1,-9.482699E-2,4.7873053E-1,1.7004013E0,4.6620983E-1,7.350353E-1,-7.721697E-4],"categories":[],"categories_nodes":[],"categories_segments":[],"categories_sizes":[],"default_left":[1,0,1,1,1,1,0,1,1,1,1,1,1,0,1,0,0,0,0,0,0,0,0,0,0],"id":54,"left_children":[1,-1,3,5,7,9,-1,11,13,15,17,19,21,-1,23,-1,-1,-1,-1,-1,-1,-1,-1,-1,-1],"loss_changes":[1.7114666E1,0E0,4.3191814E0,3.157081E0,4.0870857E0,1.5414042E0,0E0,5.70001E0,1.4844657E0,1.4218836E0,3.8559455E-1,1.3426403E0,4.0101776E0,0E0,2.4815688E0,0E0,0E0,0E0,0E0,0E0,0E0,0E0,0E0,0E0,0E0],"parents":[2147483647,0,0,2,2,3,3,4,4,5,5,7,7,8,8,9,9,10,10,11,11,12,12,14,14],"right_children":[2,-1,4,6,8,10,-1,12,14,16,18,20,22,-1,24,-1,-1,-1,-1,-1,-1,-1,-1,-1,-1],"split_conditions":[1.7072434E-2,3.0468675E-1,3.126903E-1,6.966038E-1,5.445205E-1,6.9525915E-1,8.409967E-2,5.110383E-1,2.3205474E-1,3.409351E-1,4.6632385E-1,4.795907E-1,5.392329E-1,-6.604443E-2,2.7120847E-1,2.8962137E-3,-8.8913254E-2,-2.4995772E-2,2.570661E-2,-9.482699E-3,4.7873054E-2,1.7004013E-1,4.6620984E-2,7.350353E-2,-7.7216966E-5],"split_indices":[10,0,2,4,4,10,0,7,9,7,0,4,7,0,9,0,0,0,0,0,0,0,0,0,0],"split_type":[0,0,0,0,0,0,0,0,0,0,0,0,0,0,0,0,0,0,0,0,0,0,0,0,0],"sum_hessian":[1.06E2,1E0,1.05E2,1.5E1,9E1,1.4E1,1E0,2.9E1,6.1E1,1E1,4E0,1.7E1,1.2E1,2E0,5.9E1,2E0,8E0,2E0,2E0,1.2E1,5E0,4E0,8E0,4E0,5.5E1],"tree_param":{"num_deleted":"0","num_feature":"12","num_nodes":"25","size_leaf_vector":"0"}},{"base_weights":[1.9303958E-1,2.8945236E0,1.3923182E-1,-3.7383622E-1,1.9177338E-1,-4.6309343E-1,2.1473932E-1,4.690238E-1,9.669307E-2,-1.1481714E-1,-6.180954E-1,3.4846783E-2,8.337238E-1,-5.734539E-1,1.5526305E-1,2.042675E-2,-1.6670735E-1,3.3779335E-1,-2.2979982E-1,1.7596964E0,5.053928E-1,-1.483094E-1,-7.489488E-1,5.392694E-1,6.167495E-2],"categories":[],"categories_nodes":[],"categories_segments":[],"categories_sizes":[],"default_left":[1,0,1,1,1,1,0,1,1,1,0,1,1,1,1,0,0,0,0,0,0,0,0,0,0],"id":55,"left_children":[1,-1,3,5,7,9,-1,11,13,15,-1,17,19,21,23,-1,-1,-1,-1,-1,-1,-1,-1,-1,-1],"loss_changes":[1.4859877E1,0E0,2.8752615E0,6.2479067E-1,2.4589493E0,4.148836E-1,0E0,3.7712111E0,2.915072E0,3.147662E-2,0E0,1.0397102E0,3.062994E0,3.3658826E-1,2.3746147E0,0E0,0E0,0E0,0E0,0E0,0E0,0E0,0E0,0E0,0E0],"parents":[2147483647,0,0,2,2,3,3,4,4,5,5,7,7,8,8,9,9,11,11,12,12,13,13,14,14],"right_children":[2,-1,4,6,8,10,-1,12,14,16,-1,18,20,22,24,-1,-1,-1,-1,-1,-1,-1,-1,-1,-1],"split_conditions":[1.7072434E-2,2.8945237E-1,2.803787E-1,6.685766E-1,3.461359E-1,3.0626228E-1,2.1473933E-2,2.5498164E-1,3.799551E-1,4.03054E-1,-6.180954E-2,4.6638536E-1,2.0378742E-1,4.014765E-1,5.3738475E-1,2.0426752E-3,-1.6670736E-2,3.3779334E-2,-2.2979982E-2,1.7596965E-1,5.053928E-2,-1.48309395E-2,-7.489488E-2,5.392694E-2,6.167495E-3],"split_indices":[10,0,2,1,3,3,0,0,5,0,0,7,3,0,4,0,0,0,0,0,0,0,0,0,0],"split_type":[0,0,0,0,0,0,0,0,0,0,0,0,0,0,0,0,0,0,0,0,0,0,0,0,0],"sum_hessian":[1.04E2,1E0,1.03E2,9E0,9.4E1,8E0,1E0,2.3E1,7.1E1,3E0,5E0,1.1E1,1.2E1,5E0,6.6E1,1E0,2E0,5E0,6E0,2E0,1E1,2E0,3E0,1.2E1,5.4E1],"tree_param":{"num_deleted":"0","num_feature":"12","num_nodes":"25","size_leaf_vector":"0"}},{"base_weights":[1.4050628E-1,-4.2142123E-2,2.907121E-1,-1.5729643E-1,4.4874743E-1,4.9126884E-1,-8.482566E-2,-4.2015362E-1,1.3543327E-2,8.2796603E-1,-2.3226738E-1,-7.799828E-2,6.3136774E-1,6.16251E-1,-1.9695923E-1,-5.9408903E-1,2.0669103E-1,4.330278E-1,-1.5034193E-1,5.5753964E-1,-3.8276753E-1,1.7884178E0,5.2617246E-1,-3.663772E-1,4.8759794E-1,-1.06992245E-1,-7.445666E-1,2.642304E-1,1.7036438E-2,3.4203053E-2,7.235956E-1,1.978354E-2,-3.6547172E-1,-2.9447556E-2,-5.520656E-1,1.838581E-1,7.0613277E-1,7.9050064E-2,-4.0383986E-1,5.923179E-1,8.6719036E-2],"categories":[],"categories_nodes":[],"categories_segments":[],"categories_sizes":[],"default_left":[1,1,1,1,1,1,1,1,1,0,0,1,1,0,1,1,1,1,1,0,1,0,1,1,1,0,0,0,0,0,0,0,0,0,0,0,0,0,0,0,0],"id":56,"left_children":[1,3,5,7,9,11,13,15,17,-1,-1,19,21,-1,23,25,27,29,31,-1,33,-1,35,37,39,-1,-1,-1,-1,-1,-1,-1,-1,-1,-1,-1,-1,-1,-1,-1,-1],"loss_changes":[2.7557368E0,2.6708765E0,4.184087E0,1.7121358E0,2.5165913E0,2.9203787E0,1.693661E0,1.75825E0,1.715038E0,0E0,0E0,1.7629473E0,2.5887537E0,0E0,2.266218E0,7.9990244E-1,3.9148867E-2,7.864504E-1,6.6601336E-1,0E0,3.426414E-1,0E0,1.5950556E0,2.8222704E-1,1.1655486E-1,0E0,0E0,0E0,0E0,0E0,0E0,0E0,0E0,0E0,0E0,0E0,0E0,0E0,0E0,0E0,0E0],"parents":[2147483647,0,0,1,1,2,2,3,3,4,4,5,5,6,6,7,7,8,8,11,11,12,12,14,14,15,15,16,16,17,17,18,18,20,20,22,22,23,23,24,24],"right_children":[2,4,6,8,10,12,14,16,18,-1,-1,20,22,-1,24,26,28,30,32,-1,34,-1,36,38,40,-1,-1,-1,-1,-1,-1,-1,-1,-1,-1,-1,-1,-1,-1,-1,-1],"split_conditions":[4.8208094E-1,6.968187E-1,6.881969E-1,3.1151384E-1,5.775676E-1,4.479285E-1,5.0204104E-1,5.840023E-1,3.7759018E-1,8.27966E-2,-2.3226738E-2,3.1156212E-1,4.4962198E-1,6.16251E-2,8.9979595E-1,3.0626228E-1,2.670372E-1,4.3403926E-1,4.9091816E-1,5.5753965E-2,4.0466368E-1,1.7884178E-1,4.2617765E-1,3.270312E-1,6.982808E-1,-1.0699225E-2,-7.445666E-2,2.642304E-2,1.7036438E-3,3.4203052E-3,7.235956E-2,1.978354E-3,-3.6547173E-2,-2.9447556E-3,-5.5206563E-2,1.838581E-2,7.061328E-2,7.905006E-3,-4.0383987E-2,5.9231788E-2,8.671904E-3],"split_indices":[2,4,10,2,1,1,2,0,2,0,0,4,1,0,2,3,2,0,5,0,1,0,0,7,0,0,0,0,0,0,0,0,0,0,0,0,0,0,0,0,0],"split_type":[0,0,0,0,0,0,0,0,0,0,0,0,0,0,0,0,0,0,0,0,0,0,0,0,0,0,0,0,0,0,0,0,0,0,0,0,0,0,0,0,0],"sum_hessian":[9.9E1,4.5E1,5.4E1,3.7E1,8E0,3.5E1,1.9E1,1.4E1,2.3E1,5E0,3E0,7E0,2.8E1,2E0,1.7E1,1.1E1,3E0,6E0,1.7E1,2E0,5E0,1E0,2.7E1,1.4E1,3E0,3E0,8E0,2E0,1E0,3E0,3E0,1E1,7E0,2E0,3E0,1E1,1.7E1,1E0,1.3E1,2E0,1E0],"tree_param":{"num_deleted":"0","num_feature":"12","num_nodes":"41","size_leaf_vector":"0"}},{"base_weights":[1.14052E-1,2.7406044E0,6.389165E-2,-2.8222384E-2,2.3189405E-1,1.6676927E-1,-1.8749188E-1,-1.8530674E-1,3.6776003E-1,3.6308816E-1,-2.410294E-1,-3.0669281E-2,-5.3778696E-1,-2.8872225E-1,3.7271643E-1,8.581995E-1,1.041523E-1,1.17491804E-1,5.9800345E-1,1.8371892E-1,-4.2327487E-1,-1.3954242E-1,3.917893E-1,-6.7170334E-1,-2.1596336E-1,6.96818E-3,-3.7420067E-1,1.2667059E0,1.96352E-1,-3.8884163E-2,6.860192E-1],"categories":[],"categories_nodes":[],"categories_segments":[],"categories_sizes":[],"default_left":[1,0,1,1,1,1,1,1,1,1,1,1,1,1,0,1,1,0,0,0,0,0,0,0,0,0,0,0,0,0,0],"id":57,"left_children":[1,-1,3,5,7,9,11,13,15,17,19,21,23,25,-1,27,29,-1,-1,-1,-1,-1,-1,-1,-1,-1,-1,-1,-1,-1,-1],"loss_changes":[1.4053766E1,0E0,1.66241E0,2.2052035E0,2.2221174E0,2.6493897E0,2.1259398E0,6.846941E-1,3.6598423E0,1.1990154E0,9.2925674E-1,1.342514E0,3.7210584E-1,2.3008388E-1,0E0,2.4549694E0,1.691239E0,0E0,0E0,0E0,0E0,0E0,0E0,0E0,0E0,0E0,0E0,0E0,0E0,0E0,0E0],"parents":[2147483647,0,0,2,2,3,3,4,4,5,5,6,6,7,7,8,8,9,9,10,10,11,11,12,12,13,13,15,15,16,16],"right_children":[2,-1,4,6,8,10,12,14,16,18,20,22,24,26,-1,28,30,-1,-1,-1,-1,-1,-1,-1,-1,-1,-1,-1,-1,-1,-1],"split_conditions":[1.7072434E-2,2.7406046E-1,5.6326485E-1,5.002732E-1,4.2562222E-1,5.0895184E-1,5.234611E-1,6.787473E-1,5.796474E-1,3.5244364E-1,3.5866475E-1,6.449677E-1,5.5833733E-1,4.442038E-1,3.7271645E-2,6.5595007E-1,7.924621E-1,1.1749181E-2,5.9800345E-2,1.8371893E-2,-4.232749E-2,-1.3954242E-2,3.917893E-2,-6.717034E-2,-2.1596337E-2,6.9681805E-4,-3.7420068E-2,1.2667058E-1,1.96352E-2,-3.8884163E-3,6.860192E-2],"split_indices":[10,0,1,10,9,6,1,10,9,10,7,11,9,7,0,1,9,0,0,0,0,0,0,0,0,0,0,0,0,0,0],"split_type":[0,0,0,0,0,0,0,0,0,0,0,0,0,0,0,0,0,0,0,0,0,0,0,0,0,0,0,0,0,0,0],"sum_hessian":[1.07E2,1E0,1.06E2,6.9E1,3.7E1,3.1E1,3.8E1,9E0,2.8E1,2.1E1,1E1,2.7E1,1.1E1,8E0,1E0,9E0,1.9E1,1.1E1,1E1,3E0,7E0,2.2E1,5E0,7E0,4E0,2E0,6E0,5E0,4E0,1.6E1,3E0],"tree_param":{"num_deleted":"0","num_feature":"12","num_nodes":"31","size_leaf_vector":"0"}},{"base_weights":[1.3342685E-1,2.6035728E0,8.3684504E-2,4.9481392E-1,3.3618107E-2,1.4541626E-1,1.3780689E0,-9.514552E-2,3.1662688E-1,3.2546505E-1,-3.231697E-1,3.611288E-1,1.7059746E0,2.1418278E-1,-1.7819358E-1,4.701061E-1,-3.500611E-1,1.5773925E-1,4.965197E-1,3.7179902E-1,-2.728076E-1,-4.3363556E-1,-2.5721116E-2,-3.3743978E-1,6.0153836E-1,-4.0052757E-1,-4.8864365E-2],"categories":[],"categories_nodes":[],"categories_segments":[],"categories_sizes":[],"default_left":[1,0,1,1,1,1,1,1,1,1,0,0,0,1,1,1,1,0,0,0,0,0,0,0,0,0,0],"id":58,"left_children":[1,-1,3,5,7,9,11,13,15,17,-1,-1,-1,19,21,23,25,-1,-1,-1,-1,-1,-1,-1,-1,-1,-1],"loss_changes":[1.2437819E1,0E0,2.0829096E0,3.1942856E0,3.3827195E0,8.6449564E-1,3.84305E-1,1.6822691E0,3.1319256E0,1.2251127E-1,0E0,0E0,0E0,1.176036E0,1.9751878E0,2.7502847E0,7.163054E-2,0E0,0E0,0E0,0E0,0E0,0E0,0E0,0E0,0E0,0E0],"parents":[2147483647,0,0,2,2,3,3,4,4,5,5,6,6,7,7,8,8,9,9,13,13,14,14,15,15,16,16],"right_children":[2,-1,4,6,8,10,12,14,16,18,-1,-1,-1,20,22,24,26,-1,-1,-1,-1,-1,-1,-1,-1,-1,-1],"split_conditions":[1.7072434E-2,2.603573E-1,2.8993058E-1,2.7094713E-1,6.0520864E-1,5.4239845E-1,5.2158964E-1,3.809644E-1,7.691333E-1,4.9377137E-1,-3.231697E-2,3.6112882E-2,1.7059746E-1,4.5951545E-1,4.5533204E-1,4.1518927E-1,8.826893E-1,1.5773926E-2,4.9651973E-2,3.7179902E-2,-2.728076E-2,-4.3363556E-2,-2.5721116E-3,-3.3743978E-2,6.015384E-2,-4.0052757E-2,-4.8864367E-3],"split_indices":[10,0,4,4,6,7,2,7,4,2,0,0,0,3,5,9,4,0,0,0,0,0,0,0,0,0,0],"split_type":[0,0,0,0,0,0,0,0,0,0,0,0,0,0,0,0,0,0,0,0,0,0,0,0,0,0,0],"sum_hessian":[1.02E2,1E0,1.01E2,1E1,9.1E1,8E0,2E0,6.3E1,2.8E1,6E0,2E0,1E0,1E0,1.3E1,5E1,2.3E1,5E0,4E0,2E0,1E1,3E0,1.8E1,3.2E1,3E0,2E1,4E0,1E0],"tree_param":{"num_deleted":"0","num_feature":"12","num_nodes":"27","size_leaf_vector":"0"}},{"base_weights":[9.390497E-2,-1.3868117E-1,2.369675E-1,-2.3779356E-1,3.7669235E-1,5.484376E-1,1.0874045E-1,7.684927E-2,-3.4966415E-1,9.2913884E-1,-3.0113984E-2,3.9883122E-1,1.620676E0,-6.285137E-2,4.2534032E-1,-3.6330184E-1,4.3083367E-1,3.66367E-1,-4.245987E-1,-1.5819962E-1,1.0800966E-1,-3.6633492E-1,4.653901E-1,3.5546175E-1,-1.5348202E-1,6.478042E-1,-9.047747E-2,-1.18650116E-1,-4.8685297E-1,6.412587E-1,6.655693E-3,-5.163642E-1,2.7383232E-2,5.282523E-1,-2.7020264E-1,4.8173776E-1,1.718893E-1,4.9792543E-1,-2.2551163E-1,-2.1125062E-1,8.407402E-1,2.17501E-1,-2.9884195E-1],"categories":[],"categories_nodes":[],"categories_segments":[],"categories_sizes":[],"default_left":[1,1,1,1,1,1,1,1,1,0,1,1,0,1,1,1,1,0,1,0,0,0,1,1,1,1,1,0,0,0,0,0,0,0,0,0,0,0,0,0,0,0,0],"id":59,"left_children":[1,3,5,7,9,11,13,15,17,-1,19,21,-1,23,25,27,29,-1,31,-1,-1,-1,33,35,37,39,41,-1,-1,-1,-1,-1,-1,-1,-1,-1,-1,-1,-1,-1,-1,-1,-1],"loss_changes":[3.559945E0,2.1838512E0,2.5763295E0,1.2588459E0,1.6011512E0,2.4014835E0,